0,995.7298369926253
1,991.7999115832025
2,988.9063755043858
3,1002.4810317626806
4,998.27716646952
5,994.2655282296686
6,994.9988069067189
7,992.1198727728862
8,983.1116667346218
9,986.5135169908798
10,991.1293152886842
11,987.7974453024294
12,991.0674675677641
13,989.1995289718889
14,986.0987873213911
15,984.0849272808078
16,981.7930409365905
17,983.1086109403909
18,982.9269920851262
19,979.6455098184075
20,979.0821240318623
21,979.0980060878225
22,972.3004232690779
23,971.0169841421983
24,949.9180509017128
25,963.7667001321018
26,950.6453057392238
27,939.4711344073022
28,936.5446964811025
29,930.1879943675035
30,943.4434360906613
31,947.5113457405774
32,942.7229562361989
33,940.5782800260313
34,941.8849589826133
35,939.8272724339186
36,930.8274459200121
37,927.8308014198847
38,922.7399070756937
39,923.2588761350562
40,914.7678580271836
41,909.5348888071526
42,908.6086587014155
43,907.5618352759228
44,903.2944291215557
45,900.7951894706429
46,890.5502628859787
47,885.3826930122533
48,872.5423226036004
49,862.4349133589341
50,864.4253806202046
51,856.0957186765071
52,846.6295775754746
53,847.8847900219108
54,838.7047601637591
55,816.2772318469168
56,788.4163302476268
57,767.4061839394539
58,755.5543898433167
59,757.6671932463545
60,737.0810335783499
61,732.423628915395
62,737.9698042799641
63,746.5007408709926
64,741.0299612470643
65,737.6449137588187
66,729.2592292916975
67,723.3026335909648
68,715.1690998162371
69,726.7562334223363
70,738.4416634005865
71,727.4604993561034
72,710.7453135101285
73,674.3203066101217
74,624.3878528529337
75,626.4371853197325
76,624.3438491623068
77,616.7632974022251
78,639.3040523554611
79,604.6854261068535
80,613.9160483979573
81,552.0060637059154
82,583.6591039793674
83,575.2597996639321
84,576.6357882026068
85,564.4699217733099
86,584.9490810751694
87,581.8849662662541
88,587.3553877573075
89,591.1329182812771
90,602.9787786837484
91,609.027832635893
92,638.5480765828673
93,675.9773980598576
94,645.6189197131145
95,668.8550582812765
96,658.7088444861589
97,671.6658508313931
98,667.1138627141135
99,667.3658455671314
100,661.8073980308221
101,647.7164065682633
102,644.6577403405365
103,689.1451764926205
104,714.6738001822656
105,695.2741136612607
106,669.6086089431119
107,675.0614817256998
108,709.1687173794603
109,666.2631243238953
110,661.8343119876938
111,661.1795943784059
112,689.982340231817
113,676.3738973713959
114,679.2864896689173
115,687.9283996665494
116,682.4435609112365
117,653.0624513924148
118,628.1985267569028
119,671.6179391466973
120,685.328766966563
121,661.9608950420001
122,670.1241737040885
123,630.6608895335991
124,657.3496875867571
125,694.8292167681693
126,647.2632786174071
127,632.634080125776
128,652.3235158575404
129,651.6413932050334
130,588.7959375978759
131,577.8674865830781
132,547.2875305441008
133,541.6910878785359
134,547.8243940557583
135,543.9290906049118
136,533.1549213740295
137,515.2227194635722
138,509.14802950994635
139,509.42243748534673
140,511.5917454943546
141,503.6270532972382
142,523.7367367877914
143,495.50892511964315
144,495.95589300185407
145,495.44779540474946
146,504.0815472292095
147,492.2990612320288
148,473.3632673718259
149,442.78195481308876
150,468.3191247278569
151,433.71303013906044
152,405.75378719467886
153,374.5082543928722
154,351.7482858908518
155,360.91931981065403
156,368.7865437752227
157,400.5456324175718
158,417.49778600648295
159,428.47091548075423
160,367.4003361270755
161,353.810529612533
162,356.13205099161297
163,328.89513094622737
164,329.21950794681885
165,326.3203387069804
166,335.88109258744123
167,330.33195902950365
168,333.02009953959333
169,348.2746633344166
170,322.995550433073
171,347.7894958663581
172,306.9555794022894
173,314.52964508295366
174,270.7409836749699
175,243.7537430894789
176,237.20747950899622
177,277.2515971663479
178,293.19707809952104
179,266.0987043093192
180,201.33297178086238
181,186.73515868237163
182,179.5790477351657
183,229.82151855978972
184,207.3013791304173
185,217.01063757107445
186,205.91356895318825
187,251.86347240404777
188,285.0358796322518
189,320.7941992795873
190,340.99847384215917
191,324.61386525480475
192,326.94580826292116
193,314.9207812199667
194,313.2204622311686
195,258.50352075789596
196,209.34199625177484
197,189.38687288003533
198,161.29637070843583
199,198.1075006570359
200,222.76931766118503
201,231.59276898816077
202,212.43780319119298
203,231.45737464355898
204,170.65177834872767
205,107.03192516079456
206,132.06280118813066
207,137.18427823951956
208,165.593981811998
209,207.10662360972844
210,247.4560458426155
211,265.13597577569755
212,290.8453535928345
213,301.2755057349215
214,401.30972340679455
215,264.0488419851387
216,254.2573794071687
217,235.3009336931738
218,260.32767614897335
219,211.3279154206159
220,175.9494010986151
221,176.81853756985058
222,97.71414847036486
223,214.49313467781352
224,97.69453592063665
225,96.27449068224267
226,92.38845474794067
227,42.19316151286391
228,89.54723282315983
229,120.38846972033355
230,77.62372017877514
231,53.55131774096798
232,44.14936391809999
233,89.243821786558
234,33.48044691295251
235,16.672468693179262
236,-2.393139113124395
237,-1.709262879838521
238,-6.383055582195674
239,29.51541196879508
240,51.32584976548717
241,34.535458962582574
242,17.084453058454635
243,-18.36189605312663
244,-34.24634425534855
245,-44.566259882940535
246,-96.96086240693774
247,-101.11743265489532
248,-46.23448045041002
249,-43.852775833754556
250,-62.90375190546191
251,-91.31273356163126
252,-98.46274645649343
253,-35.16495608566948
254,-82.15618074099321
255,-104.20565021547945
256,-78.02301544654689
257,-62.55759593364244
258,-65.29073159570068
259,4.24224773316832
260,84.37529648947162
261,3.4385781245293683
262,35.91852467477762
263,71.08158781788583
264,58.16465806249122
265,65.88844889643592
266,80.8054642650119
267,76.88582942130274
268,48.87220317875412
269,65.95424901210531
270,-27.656728280619518
271,-23.128773290981886
272,-25.76515929342661
273,-165.19709849678392
274,-188.69606245813134
275,-118.53416030089483
276,-96.98323024449058
277,-82.04068039429967
278,-41.32579600296146
279,30.625643782926705
280,46.36591767416434
281,64.804718244683
282,-55.1688955315606
283,-17.984518034863882
284,-42.74813474778469
285,-32.214650712686954
286,-142.02652843897528
287,-193.13780006711707
288,-211.77574535211428
289,-162.95565867934098
290,-112.92508788979693
291,-99.08484311494414
292,-74.09818656677676
293,17.951787804145784
294,-40.10219177780348
295,-21.400519854916194
296,-77.23810040364059
297,12.851971345314192
298,37.371597102131226
299,130.46539151666113
300,126.73482096951017
301,70.68840931849462
302,-63.51269339884522
303,75.09786194044996
304,190.37369311988695
305,225.29888402587827
306,195.8406611320397
307,256.4157443918809
308,119.21252938250016
309,94.57739975180726
310,80.84088448129272
311,65.97743280299196
312,136.8873689077102
313,225.4172376853725
314,137.030513288736
315,80.52137207678668
316,68.51846948701849
317,316.6052091015769
318,137.47444510636157
319,183.14569352949852
320,-99.62462489370608
321,-21.147363075567466
322,-155.40792638198613
323,-69.07502445209174
324,-99.96418505323119
325,-49.38547982432445
326,-38.983025043731594
327,48.91048706198683
328,179.11805768674697
329,207.10557384499313
330,165.1624999666627
331,33.732764744178944
332,155.61184202463696
333,95.3135264951755
334,87.76538419234619
335,141.44565867743168
336,100.3147825248533
337,87.74353001595642
338,63.31706128728846
339,90.01047569829974
340,-256.594634766654
341,44.04782956147623
342,-61.000344501490225
343,-22.871951120508104
344,-61.163606493221664
345,3.8436912096289793
346,-96.21005633307476
347,-172.9230911734063
348,50.88858622241606
349,-50.90658741177808
350,82.36269966264
351,-12.448098830105238
352,-19.86573047734051
353,-89.5368560608556
354,-131.0100859641835
355,107.49729539292049
356,-95.61547111457469
357,12.00580885785998
358,-16.661907200622988
359,111.41903291153766
360,-71.31495454504251
361,-96.10049383927647
362,-79.89627957565479
363,-49.68593927945691
364,-77.02219853951513
365,157.18181471186452
366,-77.55918090671852
367,26.381855025617426
368,-28.442860270154572
369,4.39593203062691
370,173.34393922066462
371,69.98689779164093
372,-102.2032112760375
373,4.109866580833134
374,-66.1112115874411
375,68.01083995985523
376,70.89220509902957
377,-39.92775449878795
378,297.9881956590254
379,-0.33651703682185174
380,11.452389105310788
381,10.263812177743924
382,-18.729641621875892
383,0.9342638460704494
384,-47.34095450911238
385,-5.381940600222866
386,140.3683700585354
387,230.08729929969584
388,-67.1936721491401
389,16.00496850888095
390,-76.57341707931664
391,-211.0094760580744
392,23.509748508756797
393,199.33059095410374
394,52.73158633820609
395,-71.0322691820504
396,76.87115163254283
397,81.45096577501381
398,407.89018826289765
399,126.1136008423844
400,43.54364182485093
401,82.90300589070121
402,140.71353044806636
403,269.07760679015297
404,172.12296634974663
405,207.37632239758025
406,133.32253655131055
407,148.54245175700592
408,-25.740064418084362
409,53.357745729779225
410,-5.228739488133425
411,-96.32106345384847
412,123.88543637663348
413,34.64702523554943
414,333.9730205185895
415,92.00095502085397
416,1.6510828499210461
417,-39.52837653482663
418,82.74532646175736
419,207.33793107725444
420,281.4372401572043
421,38.68855422422691
422,31.893688620389227
423,48.02793604541051
424,125.91277755219132
425,-215.131059048457
426,-41.93592096933903
427,103.04125701192714
428,75.92459343618087
429,-158.70546396656536
430,84.59937525142017
431,261.03450601778866
432,78.68642027319794
433,149.71297986651055
434,-392.67885650757097
435,181.64497334579448
436,-18.48565520020512
437,-209.09974140439013
438,-6.632527414762959
439,-53.70989607877252
440,-289.96385495294777
441,-184.5376995034409
442,219.50507469620285
443,-110.64143513447772
444,104.79314320676559
445,63.05254316688399
446,-187.84521322442473
447,-263.77793800969056
448,35.325970568785614
449,-25.32264367136044
450,20.831899541574128
451,19.796668670427376
452,27.33314451452156
453,-2.003637042213317
454,-14.942818648225709
455,-31.59930766572759
456,-145.25126117196933
457,-286.4488210961044
458,-249.75626728197832
459,-14.855248908086216
460,-120.83472745424122
461,-5.627548622115332
462,-221.97167121153754
463,31.212231147073425
464,-14.765994803354388
465,-399.565229531702
466,-149.4574071362919
467,-111.74028801922681
468,-278.5200765715329
469,-136.3462803695261
470,-65.69049270930628
471,-152.85900619359833
472,-297.41776722369593
473,-192.3629597300951
474,-288.67274749390464
475,-203.96644737052907
476,-231.09893549793446
477,-110.66536497580633
478,-375.5959713465605
479,-315.79722895411567
480,-239.92562889563843
481,-406.92801876866264
482,-427.52355891815176
483,-711.8339845611755
484,-384.51444438010975
485,-340.67252421098203
486,-627.4400533891874
487,-542.230104130383
488,-769.4476032908352
489,-467.38538216420716
490,-379.98359988693466
491,-605.6725722328646
492,-805.7685352847138
493,-283.5322540810116
494,-595.586479642767
495,-610.8624548709134
496,-479.7802528542477
497,-1016.7540907731374
498,-776.5226859999457
499,-602.6092705692358
500,-407.5347364766305
501,-491.15384767044446
502,-616.0577521124357
503,-679.1455792543845
504,-518.4431823769239
505,-1248.6148173936601
506,-942.5227441035423
507,-543.4926087076252
508,-900.0895622154694
509,-1107.7279711663366
510,-813.146601979559
511,-845.176155035606
512,-1021.5207309476576
513,-139.6826008829385
514,-992.9016029605368
515,-689.8824771374797
516,-512.9997616507327
517,-517.8992172384548
518,-620.9241304203116
519,-555.8959031098353
520,-481.9872352485013
521,-399.50958833529285
522,-328.37391531970314
523,-706.1897965643285
524,-578.9428762089981
525,-516.8381589825625
526,-620.2692693567112
527,-770.893323982827
528,-412.98506714646254
529,-651.7330394598252
530,-567.0650229879426
531,-253.30136138559968
532,-282.5774975660359
533,-679.7975173803737
534,-595.8324815739229
535,-493.496383087216
536,-620.5410434622023
537,-172.73914678344855
538,-543.3279330239674
539,-888.0029724053574
540,-686.1304845491973
541,-403.82071611691435
542,-188.91654754418346
543,-835.0932706402472
544,-633.3316755994827
545,-623.423169412615
546,-576.6139773715969
547,-708.6847911740242
548,-705.2158997274237
549,-755.7755578648399
550,-686.1040673030492
551,-756.9468912968068
552,-419.07688772862235
553,-565.0666385829044
554,-786.9444010588044
555,-257.17723210255275
556,-674.0397882024272
557,-605.4735746349444
558,-447.0162330001106
559,-642.1991302379535
560,-651.6100145957888
561,-470.90982501986787
562,-849.7157960611236
563,-869.2866344751246
564,-1128.5541677824604
565,-1371.8239047563193
566,-520.2029315916868
567,-1378.801394526524
568,-1124.0278983301491
569,-1322.7515718128263
570,-628.6216989684605
571,-1237.5776811545893
572,-1507.8857717975554
573,-1821.808154199277
574,-801.2482290096074
575,-717.5075677043478
576,-1227.3445011561853
577,-1073.0081825671805
578,-772.8594475899644
579,-304.5592770661484
580,85.09160121898866
581,-943.0123462349156
582,-1320.6537872057709
583,-1098.9078774113234
584,-851.7809231253481
585,-847.1846948037537
586,-1259.2900974028119
587,-1143.9052200115168
588,-355.71541388657056
589,-1277.578705483925
590,-1466.4286183913766
591,-842.7985853796226
592,-836.6455270312
593,-446.2591259032663
594,-513.944210542351
595,-3563.918816273656
596,-1257.3497097040554
597,-1081.8227134120827
598,-1107.9775503183196
599,-915.5764216383345
600,-943.0240698722984
601,-1291.068920571363
602,-2178.6130475035607
603,-1860.1766865563714
604,-1046.7303898342159
605,-1513.0942128635677
606,-1529.990431304862
607,-1224.1339461368632
608,-1409.3805237505612
609,-2129.2248479550954
610,-1679.4312409773686
611,-1890.9773316898675
612,-1221.736842761368
613,-1468.9270681230753
614,-1483.526803502223
615,-1089.2019602892906
616,-1191.9383489293755
617,-1100.689321560408
618,-1114.683698275238
619,-964.7947308549114
620,-1107.6976045638878
621,-1485.5268805838043
622,-1740.2788110198455
623,-1219.387541654455
624,-1220.1888896039998
625,-1304.3488793287427
626,-1117.6014641002553
627,-1345.706029593565
628,-628.1075938307521
629,-1042.4545442010087
630,-1206.1363967267791
631,-884.9365409635878
632,-1198.277396839324
633,-801.6776535450302
634,-1020.5045856850385
635,-1100.7164527166208
636,-995.9373535663098
637,-1521.680290307574
638,-1575.4814788259555
639,-1558.9311504813306
640,-1056.5077738876644
641,-1841.433729007418
642,-1346.8482894594688
643,-1689.1711760775713
644,-1419.6696307391142
645,-1670.3008438129336
646,-1180.3347756884755
647,-1899.660649358697
648,-2020.9866413378986
649,-1979.141754877406
650,-1552.8678059930478
651,-1870.5245586523567
652,-1978.370484062536
653,-1557.5363873805647
654,-1997.4586872375005
655,-1645.616314745235
656,-1372.679771797921
657,-1921.8012355543922
658,-1537.668152778231
659,-1040.355393723915
660,-1594.0315724058864
661,-574.8177402646639
662,-1586.659621042569
663,-1645.9646975323715
664,-241.25604108750755
665,-1072.768223552532
666,-1123.942944803105
667,-812.2707501029427
668,-581.0657789761262
669,-1226.430853298638
670,-745.7145719717588
671,-1332.4161223106873
672,-430.10671931650944
673,-351.40231050519463
674,-313.54678467301613
675,-569.0851378662522
676,-1294.5895433974044
677,-608.0555443658673
678,-1380.6667470259501
679,-1382.482581570258
680,-1214.499980237184
681,-920.9233750005955
682,-319.51774750291185
683,86.66692315312554
684,-480.2458143924329
685,-450.7713285659535
686,-715.92651401672
687,-1254.066263342769
688,-1220.7070819775467
689,-1931.5357721622079
690,-481.7285344831069
691,71.42498540601083
692,-477.112807351087
693,-396.50105202009667
694,57.642322721953235
695,138.61593711116112
696,-38.43065675401869
697,218.83899896185127
698,-455.1337235263505
699,222.39327495626483
700,-547.1805663278691
701,121.321563516495
702,-144.55671796419395
703,-780.5274289243107
704,-523.5593386138045
705,-273.3363350331527
706,-448.32316046671343
707,-1511.9832362609995
708,-685.6353904175031
709,-713.0765017439979
710,-1248.2901778824628
711,-274.1171546515671
712,-204.0839621440036
713,-878.1920130633026
714,-636.2300249095805
715,-574.5121324368423
716,-735.6240909437385
717,-938.3228841129172
718,-529.0887937249889
719,-496.6581855145693
720,-990.0090334996229
721,-520.8744752924044
722,-742.0760476102292
723,92.37466741645062
724,5.815817854157785
725,-476.40952653695086
726,113.88870056600801
727,-1154.3409713138767
728,-917.6788685855714
729,-613.4268219717034
730,-792.9271622080054
731,-805.1278102958499
732,-1144.032602031508
733,-240.17719157070414
734,-1150.311471903624
735,-841.4110261385526
736,74.47738984977424
737,-513.2796167199807
738,-225.80390723367205
739,-985.5240129399567
740,-30.9264090410803
741,24.530691313110214
742,-1379.0999087766397
743,-827.7699686025326
744,-944.6838871743494
745,223.8929840732329
746,-684.7487454857264
747,-908.661031368296
748,-1296.89645423748
749,-840.1886626819565
750,-1086.8569007264475
751,-811.0957178877658
752,-906.8551318619888
753,-985.798142423393
754,-1138.927779537712
755,-833.4475213994825
756,-1163.6876147484786
757,-745.8237718640544
758,-697.799966021926
759,-692.5793768238367
760,-1224.747551443081
761,-329.10618088337515
762,-885.3337783590187
763,-895.9169326301568
764,-775.4076743619295
765,-776.1332726684412
766,-1027.3143735941778
767,-814.6757342846836
768,-1417.7531950076955
769,-400.54960849966295
770,-201.02518660682554
771,-1389.1202921011827
772,-149.69465067930423
773,-1120.5707135914442
774,-1038.7005406822682
775,-749.1482294325301
776,-823.9155022048582
777,-639.2502374731117
778,-785.5121357240832
779,-717.5688986100918
780,-1722.4560876576986
781,117.08527528038881
782,-56.49434523778796
783,-857.9467504149349
784,-1249.4766641077174
785,-389.0687844722434
786,-755.4815185608581
787,-760.0451011831915
788,-1354.6368134720421
789,-607.9777873388967
790,-1284.9736430401524
791,-2584.0608988224767
792,-1332.2708053538204
793,-460.8558788681912
794,-640.9117262371586
795,-2050.917338038626
796,-128.06622430060904
797,-613.260351500906
798,-296.0729389724193
799,-528.0039662283324
800,-796.8168373075064
801,-448.6125363147105
802,-697.5546210411293
803,-236.72187157309315
804,-163.14594072888738
805,-433.0389065683682
806,-394.0039585123598
807,-740.746100741792
808,-1551.8812773057232
809,-624.6450807018036
810,-410.76454146497673
811,-585.4845693729422
812,-1133.349294114839
813,-265.37463428521994
814,-1034.5049375555238
815,-280.3739650738692
816,-351.3777460951155
817,-452.8198749608545
818,-362.2816751319445
819,-337.73845262851336
820,-120.31223774388616
821,-195.3012076930938
822,-499.4820613491704
823,-169.70413308926405
824,-867.4340737257163
825,-2190.19926141528
826,-1759.03438793044
827,-1819.1087821357385
828,-321.44436530941664
829,-483.8315307999035
830,-1419.3568266350783
831,-40.856955418750296
832,-1207.0288561504944
833,-851.3403041183237
834,-252.9717217660892
835,-985.9051843858732
836,-427.04851765102063
837,-1504.8912745582275
838,-977.6630762471568
839,-326.51024257863276
840,-365.5574232115526
841,-263.81240366752706
842,-123.18633018168835
843,-268.015034076259
844,-162.07337969728744
845,-1224.523468764048
846,-262.8217835616685
847,-228.03150145761995
848,-1630.8555727904613
849,-420.92161848552615
850,-278.5016648560964
851,-445.53603573048986
852,-379.0360748722831
853,-1161.9212577552275
854,-184.86532680773283
855,-436.8785317257222
856,-1566.801124851383
857,-991.9158834593242
858,-566.0454018913034
859,-1944.1721998118762
860,-271.993145002261
861,-480.626634375567
862,-921.3772092033269
863,-107.98371115481756
864,-189.7681622277129
865,-203.8274234032493
866,-981.6385257645311
867,-364.5383451993385
868,-136.8320970724447
869,-1502.6659658284668
870,-313.93913073878696
871,-211.37266699541678
872,-522.8876023146362
873,-1262.0431879555777
874,-300.85704755181837
875,-268.9412988193217
876,-508.53418324190216
877,-1271.0900317680241
878,-347.3200624635396
879,-972.852975397043
880,-1394.505746088418
881,-17.137080056392872
882,-208.7624414123524
883,-377.93146825844383
884,-161.00395962253103
885,-1061.4297441426093
886,-1940.3181537463743
887,-790.1439378392844
888,-263.04133930663346
889,-213.04631354675712
890,-1124.6629726231506
891,-394.45156643009085
892,-103.09738250452402
893,-156.88023564651715
894,-240.65716473240002
895,-466.9833678762146
896,-730.9514312622365
897,-637.9013201230138
898,-1378.0385135863044
899,-2234.8102279735053
900,-1479.408102744898
901,-79.6391544735353
902,-158.4290232734784
903,-1234.0209917852042
904,-309.42471361783834
905,-229.12935589873192
906,-2053.4028660692197
907,-1485.6773203032765
908,-173.73169419422823
909,-423.450736995447
910,-368.6882970848653
911,-565.1839845083833
912,-393.48934416533257
913,-781.300261709831
914,-430.59846683804443
915,-674.1121964925285
916,-369.02012011863417
917,-676.6856224405959
918,-3131.8061204031687
919,-2370.093280406475
920,-830.1976895991465
921,-721.8690448609723
922,-211.7854826188118
923,-439.36198518124206
924,-2191.2594806711954
925,-265.6753915591482
926,-2223.259401908081
927,-713.2671219315179
928,-1020.6987434938296
929,-1327.2155620296267
930,-553.805357557111
931,-296.67449809857334
932,-464.42659824025606
933,-1601.6751100681186
934,-316.03536529596494
935,-444.7718812209598
936,-1592.4663890301556
937,-1946.3737094884489
938,-505.3954269694518
939,-2075.7931115826905
940,-468.25317830390026
941,-638.4260928683876
942,-592.6976182008387
943,-189.29736373662504
944,-524.0724048075768
945,-472.2560121194985
946,-582.8753005728586
947,-430.49393266192146
948,-746.8637533887155
949,-3167.067512539092
950,-518.1097065682078
951,-636.9058023747081
952,-681.8693282401499
953,-218.34990644275686
954,-1387.495251323332
955,-1353.6669192820448
956,-488.1146037891697
957,-1857.342291695223
958,-457.7858067217855
959,-1001.3386345228633
960,-718.729314693664
961,-456.86497984609355
962,-585.4169502006863
963,-404.688614021329
964,-1709.9805813952798
965,-632.0168283009083
966,-753.7049858672307
967,-370.98744091978284
968,-1885.5495421504409
969,-470.31388105382194
970,-222.71096668621524
971,-145.26543987111862
972,-442.6021002956463
973,-365.7640486775251
974,-433.83761060480225
975,-175.65727385764015
976,-2760.062611925205
977,-130.32493589865894
978,-633.7200781304032
979,-520.7869944757721
980,-419.9629577685436
981,-663.5342404450956
982,-27.001166324921346
983,-63.604924927661045
984,-1248.2626178524981
985,-506.0804833282105
986,-404.3336292844754
987,-611.0405066716104
988,-414.8587287497039
989,-1457.8706943552709
990,-673.4462943341233
991,-517.7172284138292
992,-941.9383733989135
993,-671.5714905914258
994,-168.43460662363555
995,-957.8972372000857
996,-1080.0018040641212
997,-317.7697520094488
998,-484.10681982563955
999,-427.5222964554925
1000,-1710.9305491885032
1001,-1314.748912535822
1002,-405.82861214239665
1003,-1450.4408393331696
1004,-586.5622544973222
1005,-567.5425088121607
1006,-207.59522621984914
1007,-527.6430238688855
1008,-426.85433028232836
1009,-585.977287867354
1010,-800.3647290399923
1011,-679.0174638449998
1012,-361.99597618356535
1013,-1726.1196617208786
1014,-608.4988172516836
1015,-1203.2767087393017
1016,-310.46970754414104
1017,-688.4798528652997
1018,-721.0799156871095
1019,-2.770081362721664
1020,-491.4871547684477
1021,-194.72186267814774
1022,-1096.94660112506
1023,-675.5708855203128
1024,-700.8798166099947
1025,-781.3100982542963
1026,-1990.960676736714
1027,-199.97505304200624
1028,-406.90775362614
1029,-176.01853632031305
1030,-474.14502850715024
1031,-779.7846419952765
1032,-254.096846585516
1033,0.8433252834735137
1034,-757.3457588135192
1035,-660.5335968649491
1036,-1089.7295106166425
1037,-850.1837704703702
1038,-347.7882127694398
1039,-434.295693770805
1040,-469.31736380391743
1041,-523.405077508094
1042,-966.508029756379
1043,-556.7361248343208
1044,-574.8208884331972
1045,-507.0526656027616
1046,-299.7240623574209
1047,-494.4760521201684
1048,-1074.46883572888
1049,-822.4548442709175
1050,-142.692240803597
1051,-265.6446390595232
1052,-416.86649833579355
1053,-892.0771355908743
1054,-1237.408840791753
1055,-2358.6248228414947
1056,-1385.743003683461
1057,-512.6829035083077
1058,-1275.0533915209535
1059,-558.1808969028215
1060,-2411.836609464012
1061,-1326.534878919244
1062,-1045.2866248990626
1063,-213.7561381384071
1064,-1439.6374955360563
1065,-2185.8052477031597
1066,-881.3534396379993
1067,-605.4300442362129
1068,-549.7831553458278
1069,-530.4593192102938
1070,-1045.004663534658
1071,-715.7022258813994
1072,-1003.7226123909501
1073,-1121.928875628633
1074,-2336.673977559843
1075,-422.4439639803409
1076,-272.5892011759866
1077,-968.2209744549428
1078,-248.01622292055956
1079,-990.1820770974638
1080,-1165.166054413838
1081,-683.4714990841981
1082,-1325.3222492063398
1083,-758.5687503723734
1084,9.382486139593619
1085,-997.9632820177425
1086,-473.6970861583599
1087,-497.0725896523358
1088,-1016.6090370126385
1089,-1129.4908798036013
1090,-1150.5093032048148
1091,-707.0485345496185
1092,-1302.319325572201
1093,-990.0020588983579
1094,-1398.876951171128
1095,-1167.512468949066
1096,-1103.1135385183334
1097,-1441.7213353432924
1098,-899.9483317609948
1099,-1383.7435017160158
1100,-1694.9786641550472
1101,-1322.8780604360206
1102,-1455.9634379829213
1103,-1252.0436126897346
1104,-1392.901636930488
1105,-1929.523626842004
1106,-1838.012874040467
1107,-1888.5356400469927
1108,-1560.0697099477936
1109,-1755.6263921499478
1110,-1768.749022937284
1111,-1808.8768155558446
1112,-1981.7462157207156
1113,-1689.9739472713147
1114,-1339.0306760380251
1115,-1974.889211340841
1116,-2336.770834950901
1117,-1693.5051665979665
1118,-1802.90410528129
1119,-2047.7474048497415
1120,-1350.7187712751177
1121,-809.8211208032329
1122,-1940.439047725339
1123,-1861.81338310683
1124,-1660.3330586654354
1125,-1985.2375969939933
1126,-1742.4495594279908
1127,-1533.803129201836
1128,-890.3860036139837
1129,-1562.0035762074192
1130,-1770.9410520233134
1131,-1226.7905904568631
1132,-1972.478203076095
1133,-1413.5063246553002
1134,-941.3197428667937
1135,-1604.2956632705489
1136,-1529.3841431076683
1137,-1778.5138716693189
1138,-2029.6603948736802
1139,-2041.2129965974955
1140,-832.7219462527291
1141,-903.1760267155975
1142,-1506.1404945900106
1143,-654.074734384802
1144,-1231.7206176940451
1145,-1402.005536242982
1146,-3978.0152683501474
1147,-1525.224711361715
1148,-1335.1627380071911
1149,-1710.671787066937
1150,-1541.03209656312
1151,-1304.2828708298691
1152,-1744.637844548033
1153,-2411.01913602408
1154,-1910.6692549673792
1155,-1217.1558216117965
1156,-1132.4700343597374
1157,-567.2361506985802
1158,-1473.1546301814517
1159,-1687.4895038340676
1160,-1526.9053441088147
1161,-1845.9372825778391
1162,-1898.7595255991102
1163,-1639.4430075717264
1164,-1934.0565008775031
1165,-822.0144472106289
1166,-1603.1953726359936
1167,-2047.791305865292
1168,-1710.666177444099
1169,-2069.5361347148196
1170,-1684.3298708535583
1171,-973.2285887265671
1172,-1489.893077609766
1173,-712.9518642449758
1174,-1726.5157578709784
1175,-1549.3792371516536
1176,-1435.1358494226242
1177,-1775.498751037232
1178,-979.8683547472356
1179,-1189.3963959386458
1180,-1393.2251778685466
1181,-1894.7005534611774
1182,-1302.5888335774114
1183,-1265.1573109307112
1184,-1408.4713826238697
1185,-1519.0293710159733
1186,-3395.9156492428338
1187,-1664.809335976498
1188,-1261.8485734794037
1189,-1982.1483759602588
1190,-1785.2336252801003
1191,-1301.3884618962622
1192,-1649.5131384409688
1193,-1522.9684261794544
1194,-1257.994592315629
1195,-1764.432930385943
1196,-1596.879297087229
1197,-1346.3244656845716
1198,-767.3762418454211
1199,-1467.848374884472
1200,-1066.8003042671985
1201,-842.6639457929547
1202,-1029.49937781989
1203,-1024.674299190401
1204,-1937.9122812003473
1205,-1694.7937604403512
1206,-1194.529483344724
1207,-1124.1583054197815
1208,-880.5210881767775
1209,-1374.4745305251236
1210,-609.8989351452313
1211,-1294.0107957894904
1212,-1645.0661216601982
1213,-1583.5196921915847
1214,-1411.4074565269382
1215,-1279.3379979562262
1216,-803.3502316285417
1217,-1892.3973690531277
1218,-1336.3238083993633
1219,-527.0291872843139
1220,-1753.4781949077303
1221,-1253.6011989453282
1222,-1556.5008304895646
1223,-1330.3215522990351
1224,-125.64775156776587
1225,-1159.0746396817965
1226,-1507.2320966080597
1227,-1075.1055286849682
1228,-1132.2180616178343
1229,-1186.1055428318161
1230,-1045.7668051603314
1231,-1022.5673908834883
1232,-904.2894887805916
1233,-1294.4108649641264
1234,-606.8434528931144
1235,-1496.525197554913
1236,-1460.2939696827461
1237,-453.8411441616429
1238,-1487.08066961862
1239,-965.6171263179891
1240,-1486.5672613007603
1241,-1528.4959403103028
1242,-1579.8779023338366
1243,-1112.3423966728928
1244,-1522.5711875445356
1245,-3154.4771767487982
1246,-1007.2815188961478
1247,-1670.1112828103323
1248,-891.5069569436778
1249,-883.6083080383341
1250,-1204.210672855347
1251,-1441.85331609047
1252,-1042.6247837177655
1253,-1311.8709297668586
1254,-433.5248532299808
1255,-2946.4463116674815
1256,-459.464134966692
1257,-3719.326096387135
1258,-1459.0430566291286
1259,-1398.5828058484112
1260,-1048.3153256409294
1261,-951.854246823406
1262,-276.5259663355733
1263,-829.4328538803305
1264,-1131.5739879309738
1265,-716.7684117196144
1266,-1048.4851761877146
1267,-1438.0607877796253
1268,-967.3656166075758
1269,-3868.7980786194835
1270,-1123.2545031330976
1271,-1473.9787515934443
1272,-2086.6019345146274
1273,-2174.533430201335
1274,-1067.9111939359425
1275,-2343.2454024010403
1276,-2324.891695983627
1277,-1436.5369348744061
1278,-401.037614481897
1279,-2981.4442864802436
1280,-1128.8862994679785
1281,-778.1897788466584
1282,-1197.6583538303037
1283,-150.83997757989928
1284,-1522.6281151571636
1285,-4043.0595226868404
1286,-175.9353226476819
1287,-1249.3465704240575
1288,-1168.0027456036462
1289,-1210.0165935403065
1290,-1190.3115133194049
1291,-1899.85453082001
1292,-1539.7926315219856
1293,-739.9919826701553
1294,-4320.73690267476
1295,-4116.095513239719
1296,-730.9243636003976
1297,-2701.7464948583915
1298,-675.0434213645113
1299,-1138.5758266576415
1300,-1482.642248774321
1301,-1113.4466201749362
1302,-4741.9630736165
1303,-649.9780883115625
1304,-1898.4486508516632
1305,-1248.7791627726942
1306,-1200.907631363603
1307,-1562.6365932926185
1308,-750.2286311918393
1309,-2743.629955913258
1310,-1460.9273535626055
1311,-1296.9196467214445
1312,-228.09930343579094
1313,-14.648706235563369
1314,-2364.279875112869
1315,-1329.976168431612
1316,-1261.5017337342867
1317,-1155.045510139452
1318,-1358.4716785429832
1319,-1196.1269013039916
1320,-795.2009460931695
1321,-1557.8224222141905
1322,-1871.421116350147
1323,-1965.4644086412006
1324,-1268.3269451936658
1325,-2279.286170603355
1326,-19.44621193162419
1327,-939.6349264342339
1328,-1846.5073286103243
1329,-1666.7288922344633
1330,-1311.1850417030735
1331,-1008.3082687283098
1332,-4008.1501377876516
1333,-1504.4407282401273
1334,-1694.6831039665196
1335,-660.7921758586267
1336,-1536.0148844064258
1337,-1354.6067352885227
1338,-1540.8543757034795
1339,-1889.2944980572977
1340,-1176.3400810604953
1341,-720.5562320067446
1342,-1003.5711685636221
1343,-1013.8318348672104
1344,-1051.1558914974014
1345,-1272.4190802183061
1346,-2050.737919147477
1347,-1911.6116102202902
1348,-4002.081938769756
1349,-979.7776499731
1350,-1363.1372015828465
1351,-1302.7359419575885
1352,-1354.958588152179
1353,-827.2231433797101
1354,-2055.4712529969242
1355,-1389.7464419433563
1356,-1301.0680449599456
1357,-1278.613372303745
1358,-1370.4626384912938
1359,-1821.9585684203696
1360,-1083.1964450204061
1361,-1183.7635590498192
1362,-1117.8356567420217
1363,-536.7663504360205
1364,-1156.8262247578039
1365,-963.2277815240449
1366,-1573.4203796745617
1367,-1864.2683788953148
1368,-735.7154294817093
1369,-1245.8976580850538
1370,-1174.5110659084785
1371,-1201.0460392723285
1372,-534.1881237262083
1373,-1440.177582070326
1374,-1819.2980062084218
1375,-1063.1074289551987
1376,-466.97554988481755
1377,-1674.4370409933383
1378,-1197.5121945019903
1379,-1613.6902994431275
1380,-62.062501991806975
1381,-1014.4524010161676
1382,-3826.503758829876
1383,-1005.4037583901105
1384,-1004.6264446707643
1385,-1488.4779632813843
1386,-1228.3112439814438
1387,-292.4002370421109
1388,-1615.1912597801795
1389,-1067.1196847856825
1390,-984.0001751243993
1391,-894.5536712451008
1392,-400.1832644939437
1393,-1075.4297232199951
1394,-1233.2128353953328
1395,-1413.5723925568082
1396,-1460.582449492952
1397,-1501.812205643193
1398,-921.9757690969028
1399,-1019.5023419389704
1400,-177.63515714449602
1401,-1205.3585391710415
1402,-1041.921367793185
1403,-1124.0354376738544
1404,-514.0351325231043
1405,-1029.4112906382531
1406,-1308.6449308404829
1407,-1366.2828543072085
1408,-1210.6577836626723
1409,-1391.2255056354052
1410,-2766.0813413507544
1411,-976.1714745433013
1412,-850.7863426263276
1413,-875.8627638003721
1414,-1627.6427520749703
1415,-1661.9100486282584
1416,-1539.4895816543785
1417,-1307.7018917375663
1418,-1712.1192514781824
1419,-1394.807273720695
1420,-1175.3874161962367
1421,-1578.3480954223685
1422,-4594.0692975002585
1423,-905.6079929905419
1424,-1109.730777867191
1425,-1092.7145395472464
1426,-596.4944155718923
1427,-1516.770295206409
1428,-1371.3988472037784
1429,-1240.704154897576
1430,-1540.8653226192694
1431,-611.5638574891578
1432,-657.6639991055705
1433,-988.3251163461614
1434,-1252.0254583651174
1435,-1141.751661178471
1436,-368.15911416101966
1437,-533.8058557649482
1438,-1113.53335347976
1439,-794.1019648906373
1440,-444.60294666664976
1441,-1417.5089230678461
1442,-1250.0827909464008
1443,-1088.0758646755926
1444,-560.6153456686836
1445,-836.3767403127798
1446,-1010.2168593434764
1447,-1659.145803630908
1448,-259.37533183039034
1449,-1421.6403213331675
1450,-754.8468429709213
1451,-1230.8311549394145
1452,-845.0503197350389
1453,-1428.2162614021406
1454,-1017.4173821809471
1455,-452.2557662279073
1456,-2718.9772962461066
1457,-1178.244611864139
1458,-1016.0537206830737
1459,-571.0438536271594
1460,-1190.2755319548326
1461,-490.54438263242446
1462,-760.760277689461
1463,-632.223512950051
1464,-753.3121365559501
1465,-350.4544753314736
1466,-856.5109623235873
1467,-480.77080256050925
1468,-1100.1224277877006
1469,-375.4163432132432
1470,-343.67445856595435
1471,-650.776238177549
1472,-1606.8375005054222
1473,-2578.6440530525892
1474,-256.91812819958
1475,-782.8858982506321
1476,-538.7053928074541
1477,-569.2376647676027
1478,-852.7837127032735
1479,-1157.0522469373186
1480,-421.6439456068813
1481,-433.01618228552456
1482,-920.9320234768478
1483,-599.6198543803997
1484,-697.3027395918297
1485,-1026.758659629849
1486,-473.64319672233296
1487,-1198.714369307317
1488,-839.4116718451395
1489,-749.5373605715857
1490,-1126.7329418200202
1491,-841.1253488580504
1492,-929.0244574379786
1493,-699.2818641705768
1494,-929.0276950663815
1495,-859.0157749578674
1496,-1131.876617803255
1497,-1498.319524866901
1498,-609.9185086179083
1499,-822.629697464269
1500,-957.582763639403
1501,-703.5320634419882
1502,-452.8140725097001
1503,-639.9788029749332
1504,-1428.5149346133694
1505,-314.9672704205267
1506,-2474.2447565242423
1507,-209.3328289834673
1508,-663.0336172889935
1509,-866.7268118965782
1510,-962.5557964965539
1511,-387.1489337063831
1512,-744.5657535472154
1513,-781.6372027283445
1514,-1435.038068719936
1515,-585.619064207107
1516,-635.4134592518345
1517,-687.4400809215637
1518,-456.75963511032836
1519,-614.3949017218081
1520,-4126.821751337389
1521,-840.3326080360763
1522,-209.12664414886447
1523,-618.6563108334974
1524,-808.073120564803
1525,-283.1934750198703
1526,-594.0723016645879
1527,-539.5805705404713
1528,-473.84485457700816
1529,-538.8014539681635
1530,-541.7733433283464
1531,-677.341903119266
1532,-499.3529426059351
1533,-697.7437333215911
1534,-324.68249430992813
1535,-164.6817096095594
1536,-442.02136733938477
1537,-633.0951428439145
1538,-341.03170852270625
1539,-2835.676328591999
1540,-433.4415752844613
1541,-631.5246415865082
1542,-536.8907938038758
1543,-475.8544118175076
1544,-664.5622387445493
1545,-460.87486613452137
1546,-444.6922139541388
1547,-724.5341456909614
1548,-732.8860423592342
1549,-375.89378342965705
1550,-648.246552566198
1551,-742.156410073551
1552,-577.1691749508748
1553,-731.8595135457686
1554,-363.8538906324561
1555,-715.0771048372285
1556,-729.5728943464725
1557,-641.1619429454415
1558,-612.3241494498128
1559,-447.5062162438853
1560,-688.6124714666398
1561,-409.0111939242229
1562,-289.10380905525636
1563,-553.491021949296
1564,-339.9800843799221
1565,-640.0594862529505
1566,-590.1030401567176
1567,-863.9378014032535
1568,-210.80615806614915
1569,-834.0297215321463
1570,-753.411803814659
1571,-650.1729848023749
1572,-452.3290338866141
1573,-607.8401957648495
1574,-639.23284298996
1575,-781.3082745246807
1576,-563.8737016468299
1577,-499.8189993943204
1578,-686.7967310836208
1579,-652.9212205808251
1580,-738.5133031553341
1581,-464.75491114362075
1582,-873.8001558856655
1583,-196.36767564415968
1584,-798.379466244363
1585,-1345.684757180187
1586,-491.7262370204569
1587,-620.7612445406947
1588,-695.3384619453451
1589,-496.63344720507484
1590,-291.92577593384675
1591,-451.883525311014
1592,-1449.0232267155016
1593,-820.8581222348577
1594,-529.9884727334296
1595,-723.3129117339126
1596,-646.9332240621309
1597,-718.8890122144213
1598,-674.400168681875
1599,-735.8405580771727
1600,-554.1253151402666
1601,-711.7579536960128
1602,-510.2662046428104
1603,-616.5447168195816
1604,-469.4416013342377
1605,-700.6925205385622
1606,-672.1452615256446
1607,-646.1051686584766
1608,-775.3353675767727
1609,-3160.2964081831
1610,-778.446407561585
1611,-507.32819799382327
1612,-712.555472672892
1613,-855.4779128894619
1614,-650.2581098531113
1615,-504.2991990560484
1616,-777.0183616985456
1617,-564.8835613372592
1618,-681.626727512659
1619,-687.7543151000799
1620,-596.3401271802837
1621,-892.2965034730277
1622,-731.8720302993484
1623,-3134.8252348837264
1624,-2456.105255844013
1625,-611.3391433207781
1626,-783.3944300369225
1627,-807.4826654145126
1628,-787.0047834363613
1629,-913.0331039470243
1630,-517.01703489503
1631,-712.5387270433454
1632,-812.5411435963957
1633,-579.8222544166848
1634,-805.9529089892523
1635,-1667.1835730302373
1636,-921.5369821079352
1637,-256.01996691574135
1638,-804.5104228756915
1639,-2512.8721009371625
1640,-923.1315856311447
1641,-733.392012514547
1642,-1368.64321683003
1643,-1278.0521879283701
1644,-213.92852797695923
1645,-3024.2769870332336
1646,-356.4521731361522
1647,-1659.2821030183602
1648,-788.3373471658119
1649,-2212.4578507471674
1650,-567.0159761537066
1651,-1231.3756549415812
1652,-2226.7409457985827
1653,-293.0861229519343
1654,-536.1443977998604
1655,-706.8536108180273
1656,-1524.795442640393
1657,-220.3746408850599
1658,-1320.7865092528086
1659,-171.93895779113146
1660,-482.30954959006635
1661,-115.53426220213964
1662,-931.0428093389911
1663,-460.23727790431013
1664,-4709.637118442012
1665,-1742.140036315525
1666,59.30472002490183
1667,-513.3272512539983
1668,-437.16344087900376
1669,-1128.9419540713882
1670,-1546.813262042039
1671,-476.0025742363782
1672,-254.65219478949845
1673,-736.0742023056138
1674,-862.9407587044075
1675,-681.5023664648627
1676,-412.7625631612941
1677,-4437.035589176481
1678,-1068.1721883375155
1679,-188.09539653300064
1680,-703.3474632766374
1681,-1637.5704311507452
1682,-759.8297002672808
1683,-120.38137900579817
1684,-1452.5952804745846
1685,-619.9910535281762
1686,-4253.657821584385
1687,-162.19533465926256
1688,-77.75643265861713
1689,-405.85176365630133
1690,-1929.9460965835333
1691,-583.0783866591138
1692,-1098.7984349555431
1693,-408.1803692246156
1694,58.04618129208988
1695,-145.5590221558153
1696,-187.65342964761643
1697,-1612.6510385537906
1698,-1050.2185970825433
1699,-2503.1312824992697
1700,-2759.712283291443
1701,-739.8759318378234
1702,-704.241601487165
1703,152.50588999708683
1704,-2650.0913902234674
1705,-459.8939719068294
1706,-329.30601223222425
1707,-1202.2392051579995
1708,-97.57127264922995
1709,-459.0261270044802
1710,132.91252683428516
1711,-4999.299170893925
1712,-371.05667088209907
1713,-1688.9370669579973
1714,-1158.4326568526374
1715,-538.308905955807
1716,44.69990918196006
1717,-1185.4910654887256
1718,-1158.956273263175
1719,-534.5881320161451
1720,-2746.695991382539
1721,-2231.625390816253
1722,-2266.812952782395
1723,-2175.505473580894
1724,-4356.810758884041
1725,-637.4072611871555
1726,-2553.756472306149
1727,-1625.7898783942953
1728,160.14110695717494
1729,-1673.6951632193143
1730,-280.2737720632124
1731,-783.8916929275842
1732,-2128.268257801916
1733,-2109.710594979262
1734,-2522.8558585001033
1735,-1095.1973117754956
1736,-279.1979411574586
1737,-5784.9096961059195
1738,-820.6440244299584
1739,-137.8494035193285
1740,-345.28929832341487
1741,-532.9325728915172
1742,-607.4117153843505
1743,-1946.5895499158623
1744,-514.8683205366788
1745,-2055.2460737736196
1746,-247.48448591933303
1747,-265.73175952562985
1748,-314.93058287398406
1749,-648.4476994370386
1750,-835.7228455413979
1751,-509.35028692263717
1752,-925.1658412090159
1753,-720.656180527819
1754,-1360.1018246174553
1755,-426.620135245555
1756,-414.71086464520795
1757,-1748.1584615485506
1758,-729.1557716925139
1759,-891.1521782627697
1760,-401.2648906788236
1761,-313.0066216620848
1762,16.373185660879226
1763,0.056435075386518374
1764,-2119.69396778905
1765,-1867.1216481297222
1766,-2062.6398573442416
1767,-747.6468457713622
1768,-465.18284391719067
1769,-1581.1796219555147
1770,-431.67078597885296
1771,-406.65201912667067
1772,-793.1588338988387
1773,-1452.1993023605394
1774,-1041.117876876172
1775,-2428.280349966923
1776,-430.98745896075116
1777,-1903.43832891091
1778,-1257.0750889773688
1779,-540.24430644194
1780,-257.8866386960412
1781,-964.8775916903279
1782,-125.08192867553818
1783,-286.03899954608846
1784,-2485.6978372574545
1785,-835.2207808151862
1786,-1909.916458603999
1787,-1841.2763084007158
1788,-368.23641343061354
1789,-930.6978883301636
1790,-875.7500976754719
1791,-721.2225688707082
1792,-1744.8206481551779
1793,-186.1957910070074
1794,-1211.2950065305433
1795,-699.4435099268356
1796,-413.8812238719492
1797,-856.9058712870838
1798,-740.1496940569697
1799,-312.25725096968637
1800,-1832.3143333363348
1801,-662.3607978263437
1802,-504.13701491027564
1803,-593.0207539000561
1804,-453.3925994054867
1805,-112.16560809876405
1806,-921.4231384958257
1807,-1653.2489009943229
1808,-655.5425105619372
1809,-1087.3140092705778
1810,-1086.6967106998497
1811,-844.1626556775017
1812,-2111.7671338284376
1813,-1112.8741986124571
1814,-287.78089093293516
1815,-3392.85015092206
1816,-907.2167938154265
1817,-658.0893267300161
1818,-573.9002640085567
1819,-2194.566784046001
1820,-397.9625032204962
1821,-236.85616354658285
1822,-627.3058501790174
1823,-250.46250672744563
1824,-1685.2632597731035
1825,-3076.5688498143954
1826,-609.4030437851053
1827,-782.3191485173255
1828,180.16865083622375
1829,-512.8906228241971
1830,-454.9999006436711
1831,-752.1772033902733
1832,-704.0527624553891
1833,-751.3865081331595
1834,-287.12244615182163
1835,-674.3811631883242
1836,-1083.7509485544233
1837,-292.8185085090883
1838,61.816048873718216
1839,-625.0328542639025
1840,-271.9835798659588
1841,-492.72290887030164
1842,-2078.902514236795
1843,-671.7319143055835
1844,-244.72752288298463
1845,-91.45325512005401
1846,216.88181842004803
1847,-867.9090613364924
1848,-1710.9546484783139
1849,-930.2229463862682
1850,-140.1677621422243
1851,-279.50179563919886
1852,-600.0428658571501
1853,-293.8472759421182
1854,-118.5927087757213
1855,-2204.638787985843
1856,-186.8824883221374
1857,317.7092611144653
1858,-188.46713044699968
1859,-85.20563527815368
1860,399.66941782886084
1861,-90.10092972639882
1862,420.2502464754138
1863,115.81442448660901
1864,-238.60690633617767
1865,-1866.101708472984
1866,-86.88665829686938
1867,-915.8066867839267
1868,-877.0278891085514
1869,-316.4157689878815
1870,-262.44046181312484
1871,-959.119143484154
1872,-364.56582800712357
1873,83.31988371836945
1874,-984.6605151866689
1875,30.11209236999744
1876,-2051.0496120304465
1877,-720.3841273180082
1878,-1568.7367875901816
1879,-1249.4430168612087
1880,-171.88776069195444
1881,-35.32161676493189
1882,-2351.1390696390645
1883,264.31065219598975
1884,-337.0289128214816
1885,-710.4064357701764
1886,-400.27038933245655
1887,-691.0418541571108
1888,-550.0768881316792
1889,-598.2673489721675
1890,-253.6337928088345
1891,-1491.3037568886814
1892,-29.613989025849236
1893,-380.4232194053366
1894,-38.27934450954563
1895,-394.6221978237416
1896,-297.02694102734057
1897,238.33327917427866
1898,387.34371191030914
1899,-19.80048917408834
1900,-788.2637183723685
1901,-649.9651976624772
1902,-65.97022922265796
1903,419.0437875068008
1904,209.2597290835627
1905,-2044.2476509735316
1906,651.8376388639182
1907,475.6802465948918
1908,-184.90849523507543
1909,-678.53655044918
1910,-337.381551827333
1911,565.566676025832
1912,-1491.1063447261897
1913,258.391040483013
1914,-183.9968832460761
1915,161.11040470494032
1916,493.36613875364816
1917,784.2977751464313
1918,485.6187802144314
1919,-456.53877630942605
1920,-1601.0942252967398
1921,421.3407170608848
1922,270.7010711473325
1923,-639.3825540995554
1924,-745.2748775922586
1925,-2273.3281875857224
1926,-1001.1960104008504
1927,-655.5015118616003
1928,357.7148227264701
1929,345.7171897699084
1930,275.68705710596936
1931,-317.3179904164685
1932,-138.8330865619815
1933,390.22930502893274
1934,333.1552145273777
1935,341.11293291821806
1936,563.2674424917178
1937,587.4997033241858
1938,361.39136732159136
1939,436.9557926716771
1940,-1284.5115510839107
1941,578.5451227605573
1942,204.1793232366897
1943,407.10105293287376
1944,413.432042825021
1945,-20.22122233416305
1946,298.0403584619354
1947,635.8116792363984
1948,-1429.7296327135002
1949,96.34967449415568
1950,270.3692474805036
1951,751.6785001343093
1952,813.9136556958025
1953,291.7547928644122
1954,-1489.9092916445327
1955,466.38648218201456
1956,392.81890450986117
1957,392.40911813652775
1958,398.74737931548816
1959,181.51222247343273
1960,346.29475792374586
1961,156.29815850961677
1962,324.55698897127195
1963,885.0749929662867
1964,564.6040419198172
1965,-1185.530831946179
1966,-1550.989681395079
1967,185.46108656732952
1968,-1332.4794270567345
1969,279.76021339381765
1970,232.97378581336713
1971,727.0518144905776
1972,-678.3737692035199
1973,723.9943496353386
1974,-1377.2297970020027
1975,248.34056283793765
1976,-1228.6634769575658
1977,345.79081557885996
1978,559.2771987688683
1979,502.61147430274013
1980,174.26709775398834
1981,338.24529351767495
1982,608.523239655485
1983,328.2124197142392
1984,-710.3797963068063
1985,496.8108147583221
1986,169.01982561499284
1987,-262.4358956099701
1988,290.5813331175693
1989,233.41870151892735
1990,444.34180853222864
1991,424.6840314987633
1992,423.78120508684077
1993,-809.2686771651289
1994,439.6298016170226
1995,12.764128560720144
1996,284.1601209233855
1997,833.7556444997289
1998,460.2717157772236
1999,883.337876508915
2000,-752.7621175371918
2001,242.30216752592136
2002,306.5891071405431
2003,-1699.0282604892861
2004,-1030.8121767027035
2005,744.9610388947193
2006,564.5848227891403
2007,953.3523165916066
2008,-422.394185719484
2009,-932.658298435816
2010,-295.6904735062473
2011,-198.46669765980118
2012,1405.597431554149
2013,302.9804282076942
2014,297.6464536296639
2015,587.2031232667686
2016,257.66557797862157
2017,796.7397025078895
2018,324.07102189059225
2019,647.5839899389528
2020,-1190.298194624117
2021,353.1294094267517
2022,-735.8910511993969
2023,678.0210694907988
2024,174.6935433641984
2025,897.2950389450554
2026,-228.04590997970425
2027,583.4833028124456
2028,995.942922627372
2029,346.93244192717503
2030,1120.3729686736249
2031,615.5257508249698
2032,649.4280265027159
2033,626.5910741863393
2034,713.9433219192946
2035,392.72527546957355
2036,-138.77253630018882
2037,443.96315836524406
2038,798.6617329172568
2039,317.00711140634826
2040,1070.5793602012586
2041,1089.8728639374401
2042,599.899439015464
2043,543.7710525413338
2044,1047.7878813470663
2045,-79.21244370740204
2046,839.1613292875683
2047,634.9404979675894
2048,1035.9196033219666
2049,-821.7590523825961
2050,562.8429339017371
2051,778.9829646322428
2052,-1056.926359425631
2053,-779.4579598359213
2054,954.7498611929868
2055,392.1191325152445
2056,419.9705044433001
2057,449.07554895298085
2058,586.6120938864836
2059,880.6183635224561
2060,420.248613245235
2061,147.4593235722283
2062,-1170.760090560912
2063,92.78866772017552
2064,61.918160574476616
2065,591.6686520526333
2066,531.1238423021592
2067,1010.0455373857561
2068,-2272.7987808139414
2069,263.74073372161405
2070,1013.2385488661848
2071,609.5639186095129
2072,417.61503657198637
2073,-803.5088678196953
2074,156.58897282371836
2075,1000.7791966199206
2076,475.4058807536005
2077,147.91726663902915
2078,603.3796162666491
2079,389.1740791966503
2080,240.26602993110328
2081,913.2765785578896
2082,562.0398404485501
2083,535.143162546012
2084,472.39877191206614
2085,988.7835104887163
2086,569.4588477815277
2087,748.0221675418696
2088,561.8579817514097
2089,683.4020694514147
2090,680.9996322733826
2091,989.0323913334037
2092,1287.5341747037846
2093,-768.8646807850763
2094,411.1813300917683
2095,901.6781776058614
2096,751.0002702889832
2097,1046.282618030079
2098,1324.4697613508831
2099,592.0640247557909
2100,1119.4666554743155
2101,502.82121810402583
2102,-802.5350876789058
2103,564.8845926827211
2104,846.497109409615
2105,390.441528820409
2106,951.6711943261913
2107,333.34910850254187
2108,533.1659012481427
2109,803.0830614730312
2110,823.1329697505358
2111,569.3249168684857
2112,1039.309062630351
2113,504.66691466667834
2114,414.79724579739286
2115,1276.752267018998
2116,1073.913317351986
2117,341.3898589159926
2118,101.50473756164449
2119,384.0856122919784
2120,-705.4492857803081
2121,1041.3674530740525
2122,262.7898652399451
2123,704.2753409615199
2124,247.74911831583475
2125,-1385.3012614713152
2126,1304.080244426959
2127,1247.1254116487735
2128,392.3909679068742
2129,1130.6820846638561
2130,722.2041830668528
2131,40.07110634401639
2132,1501.4166643113433
2133,745.6966635659736
2134,931.7655642182557
2135,1162.616757129307
2136,1154.1847176246988
2137,1712.8395441780256
2138,1273.3815047949652
2139,1724.1661356723077
2140,427.5003382761952
2141,1231.0495618336693
2142,-274.3846643102801
2143,1165.5250438899413
2144,980.8642844056511
2145,899.3346975716971
2146,705.6394430668862
2147,958.5480791292888
2148,-157.7765531778024
2149,1383.6701064633808
2150,504.4336910370077
2151,1953.2372991298218
2152,1206.421391254148
2153,1115.4814919700923
2154,1070.6989228683772
2155,1805.4156308965548
2156,992.2778816962368
2157,1555.0230557384837
2158,1560.1109102074686
2159,1349.0377912782305
2160,1076.5825444872576
2161,308.4396381025181
2162,-105.29860561627481
2163,723.0513563448816
2164,977.737145454413
2165,1356.801885394693
2166,117.99106061135143
2167,747.1672224657736
2168,1052.921315532394
2169,474.6637419194537
2170,1197.989357167138
2171,1989.6158097479363
2172,-963.385260784491
2173,281.71178624570683
2174,-741.4572753385975
2175,1353.397772258804
2176,1148.8004889143215
2177,585.5099837816587
2178,985.3864378876104
2179,1821.298841932062
2180,942.174999717873
2181,653.1112182092324
2182,76.72493127914477
2183,1183.9968571891511
2184,790.3299902316109
2185,535.3318262580207
2186,219.38212641157293
2187,1051.535183379084
2188,563.6279701859813
2189,-206.49003476328133
2190,190.97787940743422
2191,1854.953579325738
2192,821.8585720405596
2193,-437.7607341686913
2194,-313.68630003935465
2195,867.9774990427887
2196,-2805.239401945686
2197,-613.6852167746586
2198,45.843758107997665
2199,-292.12993971560905
2200,681.3423240366752
2201,493.62327940491235
2202,706.0728656408173
2203,278.5601451887947
2204,696.6283048856336
2205,244.54862424433952
2206,403.63411896384304
2207,147.19784748109043
2208,-114.56464169514497
2209,1732.8863493810238
2210,-66.11431089374584
2211,982.9771765235856
2212,-92.05940401936324
2213,772.6718659834
2214,692.3676665526283
2215,598.964543118476
2216,621.6792155386662
2217,502.5537005714586
2218,835.5627029500083
2219,1266.6556884314027
2220,644.840699208486
2221,-1959.1717652710577
2222,-2696.8525364026514
2223,1038.1913532472024
2224,298.8485930198105
2225,773.5279838330948
2226,906.5911937800274
2227,1449.2648872241361
2228,347.71560314214395
2229,980.8855370946904
2230,-1434.3967474949259
2231,465.49034361010604
2232,643.9854876209607
2233,741.3634416488184
2234,1712.694379416733
2235,-11.571667139339702
2236,976.2064825458684
2237,433.8586062935845
2238,-102.80916946098414
2239,1193.7014500864336
2240,336.31118319085243
2241,-542.0129400068303
2242,317.1939667187758
2243,1509.742272492509
2244,62.83097916671871
2245,1045.0819633902283
2246,722.7225790151464
2247,668.8348730020189
2248,1085.0704921134386
2249,1521.3770876383778
2250,625.1847150161583
2251,-634.2692560974841
2252,526.4992251244405
2253,540.0047211829282
2254,1400.683620891041
2255,364.0177415906948
2256,1721.3395287942394
2257,720.1467056805462
2258,1370.9184346313975
2259,372.58737776765867
2260,-308.116965919436
2261,-1632.5946026877793
2262,-693.3662869802306
2263,930.185918213827
2264,952.3805270754488
2265,1213.039994944843
2266,1125.5521495195446
2267,-547.5278175802576
2268,179.54766602538007
2269,1110.6511809740766
2270,585.1411576496433
2271,446.14464871499496
2272,516.1969638361165
2273,311.5439619800784
2274,999.880524514088
2275,188.56841421190606
2276,-593.6379290545144
2277,698.4858809441904
2278,1419.8869726965165
2279,1435.4767140619313
2280,-16.903580520168553
2281,1652.2475110511823
2282,-75.65092517568765
2283,1307.4911054426127
2284,-140.51986459328768
2285,-334.66036741768664
2286,697.9004662664732
2287,1561.28390360688
2288,880.2413853926904
2289,2014.6779951137298
2290,1875.9560589050816
2291,1674.6347061376603
2292,898.4983691060712
2293,1746.9048611690393
2294,1843.09990039323
2295,1657.7683814477678
2296,622.2623914194842
2297,792.2439423197729
2298,1498.5650889304268
2299,1293.385632688638
2300,2101.596161245838
2301,834.4914040856305
2302,1195.4654330126707
2303,2440.368600346339
2304,1743.615706551219
2305,-1267.8681651341124
2306,1572.6990612452191
2307,1133.4602006514167
2308,2230.285387063974
2309,439.1548680719763
2310,1794.2925513783866
2311,435.2128682616033
2312,-212.28678293079895
2313,1806.8768167665542
2314,1882.5304946775439
2315,-2361.114798615477
2316,1410.606896824811
2317,1378.612860672202
2318,1611.4617492006607
2319,1789.8758934544303
2320,1220.0604375958173
2321,1547.9947138633913
2322,1205.6977054105882
2323,2213.1083488685586
2324,1909.856539340939
2325,-0.654422939979904
2326,1560.1814206665856
2327,1702.0295402174843
2328,85.62823946023003
2329,2010.382421851881
2330,529.1978500701538
2331,385.949903943885
2332,1079.0285899545736
2333,-574.2899483478932
2334,489.96534956062516
2335,2447.42713302055
2336,1193.403843135802
2337,1298.8642424835202
2338,1429.5188766024628
2339,666.236879887072
2340,-1173.6055420255127
2341,-1816.2802318329584
2342,2223.376652831185
2343,306.41385652655873
2344,2080.2779374856145
2345,2156.115720184329
2346,2037.814118081731
2347,206.60235202836736
2348,176.01017204041952
2349,2069.0279032409876
2350,-66.64266293905473
2351,1956.1197069310374
2352,2523.712698148004
2353,478.0809303697451
2354,741.4414074462547
2355,2615.5952703347702
2356,2010.8821244765613
2357,2593.617190251295
2358,1998.2905627413036
2359,1290.2926209327463
2360,936.3183127186121
2361,2671.557457890856
2362,2453.5213048302144
2363,865.7572382950507
2364,-258.0313834405062
2365,1845.1550967112646
2366,2184.210952708668
2367,-69.90504639842725
2368,1952.2339466119267
2369,2800.257100240388
2370,2229.6040323271195
2371,1281.726053205433
2372,1777.6762276153538
2373,2105.230315978899
2374,1114.846887299666
2375,2484.410741951447
2376,2034.3498141665962
2377,1517.564065263604
2378,465.8453199976298
2379,2081.4591428082595
2380,1419.5142554620973
2381,1448.5848710112007
2382,2388.10913955864
2383,2080.025102080103
2384,886.8046609801299
2385,908.2430328608548
2386,2924.70466085674
2387,2216.6299788435676
2388,126.36878770202286
2389,1914.9037267026304
2390,376.86276058900665
2391,2515.565413746766
2392,2552.4050281153145
2393,1616.7379225296293
2394,1782.7901587774002
2395,1092.7471333267986
2396,367.40311907208405
2397,1381.5159654689403
2398,-283.22103079738145
2399,1610.3653526248154
2400,-418.40116911553247
2401,2345.4207896973744
2402,2517.6729296599433
2403,2465.9428409167635
2404,641.1320515877547
2405,2912.8341380522356
2406,1020.3456725729038
2407,1860.9633168308048
2408,2662.2258990558034
2409,1983.0898264555337
2410,2181.8393731608503
2411,2948.249483292233
2412,2966.6278756210572
2413,987.9681829027636
2414,1760.2980828495845
2415,2287.4357772883973
2416,2384.6265620552253
2417,2653.5102632519333
2418,1870.8807626498628
2419,2611.494578525374
2420,3084.5337697497416
2421,1904.9217267755678
2422,2633.900855529953
2423,2854.8970671102447
2424,3145.899570724405
2425,2037.548233885922
2426,2475.1028965861437
2427,145.14434303352817
2428,2405.0682634649256
2429,3125.9869296883394
2430,-790.0858592086829
2431,2992.122605310158
2432,2769.499806540159
2433,-693.8326106389491
2434,2697.762681821024
2435,2644.070079541259
2436,2723.595560183215
2437,2857.316310718064
2438,2032.5318310698651
2439,2051.7451745488142
2440,2996.341309117819
2441,2995.4720124447886
2442,3005.102313324529
2443,2590.8239794266015
2444,2905.82286995275
2445,2899.600949266633
2446,-1080.0799626341757
2447,2436.9351110801713
2448,2803.0028942101267
2449,2233.1622418456504
2450,3001.676475415685
2451,2484.7119399783633
2452,2660.908789513533
2453,2966.23607168674
2454,1579.6393697342783
2455,1449.108638986075
2456,2206.985325950102
2457,2129.9917718093902
2458,3012.399953206125
2459,1926.902146420997
2460,1766.8505771663497
2461,-1486.4905665742763
2462,2863.85345920754
2463,2017.431464928806
2464,1086.951211486324
2465,349.34762601516724
2466,2731.696458170049
2467,2955.835583625671
2468,2748.678547650891
2469,261.14398628392746
2470,1590.1856687287884
2471,-1192.9168969331258
2472,1752.6426441200913
2473,1311.370802450267
2474,1935.833954950772
2475,2628.4577778562975
2476,1912.2431355955368
2477,2916.786955987882
2478,2433.2895526926536
2479,2453.621862687627
2480,2958.5087245058075
2481,-191.077920352237
2482,1621.4400991873224
2483,1925.3710459233837
2484,1599.2152699697947
2485,1453.8227305295934
2486,2876.1064234809255
2487,63.23841352731824
2488,2925.546511532991
2489,3122.266803251852
2490,2733.179180844814
2491,2849.440563448427
2492,1569.8598328625849
2493,1040.0686980834123
2494,2143.793388812272
2495,2387.8391817462384
2496,1231.678926521943
2497,653.4858004898155
2498,2976.809127330294
2499,2966.834335923942
2500,1175.7412315536913
2501,3221.0130216835255
2502,2649.2838591295817
2503,1662.5472559009331
2504,1123.3556070809616
2505,346.09295422959866
2506,3123.616166070089
2507,-879.857611869881
2508,1689.064601345598
2509,1642.307564550745
2510,1392.8601665923134
2511,2873.3001085577635
2512,2019.0280516415223
2513,2076.599425078482
2514,2919.395444375652
2515,246.85207113433714
2516,1889.8366641637485
2517,1548.0565156390533
2518,2557.1293385620074
2519,2917.505819697543
2520,1333.3155109068823
2521,2161.935788561566
2522,1391.4932910924163
2523,2372.5369756437144
2524,2861.338575772504
2525,974.2084511530188
2526,417.6844639915152
2527,1925.117202369548
2528,3013.0838257034825
2529,2843.282472731153
2530,-39.89150356347813
2531,1089.8102961122204
2532,678.228600243482
2533,2936.0217565381568
2534,776.1206396713702
2535,1322.0894332674222
2536,2055.0114084851507
2537,1136.2350740066383
2538,3265.6871458763103
2539,2868.5381858753603
2540,2174.0975410493106
2541,2637.7413226268445
2542,1127.5699220704078
2543,3070.082567815723
2544,2066.4843994421217
2545,2168.5554835062194
2546,2944.0431604896426
2547,2521.104150567741
2548,-255.64931121821022
2549,2842.5490402836035
2550,1300.883336327073
2551,2438.452132263231
2552,2597.009556989392
2553,1191.0449930536647
2554,-213.14378953061745
2555,1965.7495297469961
2556,1725.6589263460046
2557,435.5828764946548
2558,2518.13951678446
2559,2128.216816391437
2560,1990.071256954858
2561,2428.715534684668
2562,2206.822445814028
2563,3072.01110468676
2564,2987.2326350977105
2565,-2721.4048618546663
2566,2154.448673297779
2567,1104.7781845820778
2568,1166.428564230229
2569,2145.4344419059585
2570,2811.341600409438
2571,2433.0486752235715
2572,1844.7615506847953
2573,-397.89280154371585
2574,2607.8540010571082
2575,2908.908680043732
2576,1312.0522118141669
2577,2944.1723950891587
2578,586.0678238821405
2579,1634.2326821513188
2580,2198.336397502992
2581,2758.9791733043094
2582,731.4199612718877
2583,1551.362721683061
2584,-150.43339226193567
2585,1455.6355153290817
2586,1400.7941598387142
2587,3008.5210304385414
2588,1341.3770857736947
2589,2649.2241225220127
2590,2856.8050810926284
2591,327.6371002485772
2592,3037.8130700683414
2593,2068.749974973988
2594,1405.4346902284399
2595,2340.3209005454514
2596,2097.2260799989394
2597,2226.1132545258242
2598,1575.8963023084746
2599,2148.044199514772
2600,238.31696703742486
2601,2740.332540910165
2602,2496.134850075354
2603,2915.4987684941857
2604,3040.935478682899
2605,2110.188711396089
2606,2509.7195105835913
2607,2719.393809196099
2608,2765.358239709371
2609,2308.51888280809
2610,2668.322678884423
2611,2932.929788074023
2612,2618.471348122563
2613,628.5825358260187
2614,455.9490158535494
2615,2477.707053378539
2616,1107.3350989960584
2617,1342.5162335905527
2618,1997.8326751694822
2619,149.39013424173794
2620,1537.0554020308082
2621,853.0196036552098
2622,2622.1662779578073
2623,930.0377507527573
2624,3100.162344598286
2625,2568.102324294932
2626,2178.067621522618
2627,2116.370367381807
2628,385.6900002793188
2629,2196.950882271772
2630,-1061.791101327117
2631,2036.4119783894557
2632,3062.6660472283097
2633,2301.269854574478
2634,1617.3906794343627
2635,428.00482017291466
2636,1795.6826470600772
2637,2700.6872812760416
2638,1672.3515602041525
2639,1070.495412026596
2640,1592.638101384189
2641,2019.715689341964
2642,1047.4191208209097
2643,1084.5977524896637
2644,2377.5599363071246
2645,159.96445547785342
2646,1590.6856536214193
2647,1298.7183883655218
2648,1358.639485732437
2649,1323.6701364926382
2650,2086.3243124028145
2651,2885.0180107364868
2652,1528.3154542660538
2653,2409.69473890686
2654,-445.16919445533057
2655,-97.91020085268964
2656,2567.1217491574057
2657,214.2678220804493
2658,2440.0409681591973
2659,2088.2458794762247
2660,697.742983563484
2661,128.51009113852885
2662,2324.345577781009
2663,2661.985334810744
2664,1029.830627734819
2665,2257.3964944751783
2666,2935.674750940451
2667,2011.286222621415
2668,1716.1089676801466
2669,1969.4032500502797
2670,746.788617884406
2671,2474.4428974065813
2672,2601.645930625506
2673,2655.726661378872
2674,2293.8258531289325
2675,2765.752380643678
2676,2704.9344127691224
2677,1286.1624992566083
2678,2550.2141092942425
2679,1532.8808284340773
2680,384.9977773866537
2681,1234.50466608698
2682,1125.4326114427702
2683,2416.595414745097
2684,278.7761826776183
2685,-559.4672622957698
2686,952.361574433654
2687,1308.5418925150736
2688,874.0674823168541
2689,2151.4769130136906
2690,2122.927418531453
2691,1064.367115143639
2692,-1318.3537676893413
2693,3061.7495645628296
2694,724.9248218734286
2695,637.3711425363366
2696,1903.081389189999
2697,918.3699133518668
2698,2295.506570362944
2699,2252.2123545462
2700,445.78301543466984
2701,1294.0279611277567
2702,615.3678104782317
2703,492.47085849516935
2704,34.21807319888798
2705,1309.6623949443003
2706,312.46683013861895
2707,2386.2744199809554
2708,2648.2241776636884
2709,2546.5738507597803
2710,2498.6137015528925
2711,242.91572386493056
2712,866.937002841151
2713,1833.1167686284282
2714,1813.926946123737
2715,-829.4787461154648
2716,1111.1441299254984
2717,1102.8045306789109
2718,2251.961229612703
2719,2744.8630428729416
2720,1312.862108326308
2721,-289.012257284859
2722,969.9112242799197
2723,21.259196554620072
2724,500.8322431563279
2725,2423.326302407238
2726,2636.920488571442
2727,1951.9560834448682
2728,1522.0633777559497
2729,-134.2911659052613
2730,2182.4613568878417
2731,953.596237558835
2732,1150.195729154976
2733,1843.8435777103016
2734,2329.03422848142
2735,1340.329239104208
2736,1537.5163398935838
2737,2844.914639348896
2738,1978.8843146500265
2739,1972.3436708887746
2740,2730.573491082152
2741,804.4182668822531
2742,2652.701825722928
2743,1296.8936662043886
2744,2033.7647178346342
2745,2076.8269161538515
2746,2407.1694215100656
2747,2140.1182238607676
2748,1985.2937542309764
2749,684.3241292326499
2750,2750.5848859331804
2751,2162.708229333557
2752,2769.647542981668
2753,1765.0334871646155
2754,309.66280939628916
2755,901.7207868229816
2756,1091.4507514035274
2757,2462.1257573289977
2758,1058.8081085806475
2759,2412.468567975198
2760,1548.6376209935459
2761,3012.6143841366193
2762,1508.0389285165122
2763,2682.283292200136
2764,1522.578531067669
2765,2381.7831283168557
2766,1888.7785255825102
2767,1792.98323615743
2768,779.215789370448
2769,3122.50379911579
2770,1612.7758838441862
2771,2061.1139899200793
2772,192.30374330383287
2773,1543.0637465694351
2774,-49.48657461027138
2775,2205.234525433312
2776,1479.0506938608266
2777,2690.1161138474677
2778,2158.450178499094
2779,2189.3082883209145
2780,2899.4131979619765
2781,2173.283878098781
2782,247.26756199191394
2783,2577.7016814902086
2784,2271.8303041047857
2785,2121.5722178583906
2786,1914.2054729229928
2787,2856.1143802985807
2788,2802.9407741775703
2789,1261.6494049612277
2790,2278.341253543195
2791,2198.7964147799585
2792,2819.5400097711154
2793,1722.9619605621795
2794,717.392019247886
2795,819.9086685582018
2796,1620.8690822692517
2797,1849.119256105587
2798,2032.3636256723785
2799,2966.6214042248307
2800,1849.1898876561643
2801,2861.16183118894
2802,2866.799096566329
2803,1396.450410871119
2804,216.59885067038053
2805,1462.979974004452
2806,3096.789549738604
2807,2602.9226087016355
2808,2311.168447983889
2809,2211.3402241904673
2810,2176.6521243702186
2811,1709.6945001295317
2812,2775.8223080852895
2813,1349.981787441058
2814,1779.7516592730244
2815,2730.978855585985
2816,2937.1660376356717
2817,1183.7377437651655
2818,629.4728753830053
2819,2281.7808884574747
2820,1779.6213481089037
2821,3059.257153237773
2822,889.7441623602148
2823,-280.3199939050046
2824,3297.491866825462
2825,2436.6389809552397
2826,1192.353790783244
2827,1534.457499683265
2828,-164.64870296305804
2829,1940.6526827878276
2830,2264.114814790834
2831,1639.5046218591588
2832,2517.1367385306335
2833,1471.8289352918202
2834,2610.5630420973052
2835,1494.6770835861432
2836,893.6547368858916
2837,1470.8748142858349
2838,1250.5762848340323
2839,923.225828980971
2840,2371.8291688599948
2841,433.4995759678438
2842,2466.639384155584
2843,1576.381848571051
2844,231.33537725934204
2845,2528.445735606193
2846,3006.779399460502
2847,2832.7351346497776
2848,1279.7537643494554
2849,2889.110133750368
2850,2777.6507998859547
2851,1073.209565078028
2852,2441.6544335204303
2853,2761.0123127459597
2854,2548.629697357464
2855,1966.3243790060558
2856,2182.4532723961597
2857,2129.8657293912247
2858,2879.9972620365156
2859,1751.406592220969
2860,1375.4969506427242
2861,1720.0007910133033
2862,2637.3669837371094
2863,2720.936284925184
2864,806.6364249614163
2865,1000.5504733381495
2866,2108.4064376571964
2867,2883.71511405373
2868,2412.77782415888
2869,1904.6915605206295
2870,2528.675496258836
2871,2263.2047120966745
2872,1552.1772981769427
2873,2188.825916851861
2874,2120.1103987817564
2875,1562.2021121845073
2876,1192.0054716628008
2877,196.84837433203896
2878,1609.5463242613089
2879,3180.7082955885057
2880,2060.7346875719863
2881,1299.2445483028962
2882,2063.2691530479665
2883,2939.403101817918
2884,1924.8155357880516
2885,-181.32283041303165
2886,1896.0840445725062
2887,2526.9671155068295
2888,2225.0130689700723
2889,2387.6961907371606
2890,2711.1769919742005
2891,3154.13797069909
2892,2293.5218307857203
2893,2892.549193791265
2894,2463.2593666753305
2895,2569.1350657334565
2896,1920.8766432447385
2897,1928.8934685212778
2898,3089.099065243747
2899,2776.4791724840707
2900,2788.7171622375513
2901,2825.5630312170792
2902,1673.8059051108191
2903,2040.9148741857846
2904,2010.486716192798
2905,2906.372259862381
2906,2946.652465996167
2907,2904.4229085408806
2908,983.2546260831767
2909,2087.2825703518106
2910,3119.370515251459
2911,2719.217687976654
2912,1281.435446485824
2913,2487.1264776905996
2914,2625.8250546315544
2915,2416.0276847084
2916,1367.0882365887394
2917,3422.0980008357587
2918,2357.9342320521887
2919,2763.8166001619234
2920,201.7029155961518
2921,2210.38972613513
2922,3063.952513080563
2923,2305.667342136817
2924,2290.0201508497194
2925,1803.6540193827316
2926,2611.8755620376883
2927,2070.3469539475595
2928,2292.147759113335
2929,1137.148038471334
2930,1987.0598509691315
2931,2077.662724614294
2932,2133.9450883809222
2933,3111.3837661946036
2934,1701.1921351842363
2935,2366.3073151521326
2936,3333.4965822167615
2937,1241.461980936774
2938,1816.6413763632652
2939,2993.7882391576145
2940,759.6275561075603
2941,916.3804897096778
2942,1419.6467489294184
2943,1375.0691717292284
2944,2251.0169183537914
2945,2031.4097477297473
2946,2030.2873807365074
2947,1876.334897391338
2948,2780.5567036484154
2949,1120.7655129074872
2950,1885.836920556115
2951,692.0306153286275
2952,1384.9660591576878
2953,2005.9223648094674
2954,1220.3203649336483
2955,384.68470463203374
2956,711.6823106020407
2957,2207.3995741452286
2958,2925.695117944488
2959,1161.6980619325816
2960,1224.7604251294829
2961,635.8840678445897
2962,1396.1433906946647
2963,459.81607319957726
2964,884.1539737098968
2965,1459.3865631979324
2966,1310.0563152147845
2967,874.3809829880239
2968,562.605205983761
2969,930.9323263384632
2970,2440.4865451203086
2971,1566.3630875735696
2972,2168.146930043012
2973,2889.4797774018025
2974,1533.5147740342288
2975,1604.108857436838
2976,3344.570712126857
2977,2666.3309291141663
2978,563.733281910137
2979,2613.131111547625
2980,2599.6891216505924
2981,2530.8275992039225
2982,2991.2357305811747
2983,2035.036739754524
2984,3102.1114222973897
2985,3325.479425545543
2986,1358.1159776611707
2987,1739.5388551929036
2988,3326.1592772910753
2989,3341.1457237820664
2990,3199.091123408636
2991,1959.106673814659
2992,2077.61101558915
2993,3181.4189938223167
2994,3213.0622190701592
2995,2289.4671453522815
2996,1185.7552503621844
2997,2404.8744584884057
2998,2920.032891284923
2999,2138.622487914248
3000,1405.3391173931911
3001,1150.3212000315914
3002,1601.6112741723882
3003,1097.4737333352625
3004,812.5768066028864
3005,3238.783836337741
3006,920.8884002338394
3007,2524.7043914543306
3008,743.6459456835379
3009,1469.8219508134891
3010,2308.632117784489
3011,997.4278240655996
3012,3390.6242316151547
3013,2899.6155101631844
3014,2158.8125715301517
3015,3215.579559144047
3016,869.6466333615207
3017,3375.4371073283837
3018,1020.3440809555965
3019,2168.9325258379104
3020,2923.113748080827
3021,2844.5312120222334
3022,1926.0155578197302
3023,1279.552751582832
3024,3164.4432417500516
3025,363.7559099584442
3026,1342.3189738488766
3027,3162.1413289684883
3028,1897.153935696672
3029,2818.133670031695
3030,1523.891431066717
3031,2741.992747765979
3032,2155.593087106363
3033,2112.23212560854
3034,2998.4117770120156
3035,1667.5928351906257
3036,2639.14419644945
3037,2438.3798449964197
3038,2989.337195046082
3039,3339.9678033961554
3040,2426.5503016228963
3041,2500.8297414840613
3042,1118.2496096894868
3043,3217.816195954984
3044,2811.2096330188883
3045,2203.2318409334644
3046,3286.326369986529
3047,2732.8678203889053
3048,2731.2066034847103
3049,1753.1408109817542
3050,3336.806712927642
3051,1979.5390671409984
3052,3334.623769385508
3053,2766.9608919984676
3054,2099.7251115977547
3055,2179.214248876992
3056,2918.33064086291
3057,1736.0732784211768
3058,1160.3936975077447
3059,1492.2168267476256
3060,974.4362998115431
3061,2587.2209134269506
3062,2490.7763039392116
3063,903.3925559601004
3064,2279.530076749193
3065,977.2784666629358
3066,2568.513808382568
3067,2196.7912536373956
3068,1837.4242054563017
3069,1768.0936476457618
3070,46.009769473033636
3071,1789.9564365537897
3072,1533.3700460418916
3073,1913.3570477648675
3074,1991.3700710248816
3075,232.85430755778896
3076,2708.7920184873797
3077,2518.765266680885
3078,2197.0659992080523
3079,1163.1167874944088
3080,1768.5054877597952
3081,3218.5918500602256
3082,2572.2370313429515
3083,2840.040327356071
3084,3176.0891671461613
3085,794.8714676654358
3086,1334.1749631073988
3087,1360.585858377454
3088,2217.1026540589023
3089,1865.5770761754202
3090,2581.2305589341036
3091,1634.223376629059
3092,500.515953361265
3093,1538.6887317250619
3094,1035.2772768387717
3095,3009.4244280347925
3096,963.3317758677853
3097,1162.6444201462969
3098,2400.6727066340763
3099,1047.6022615468298
3100,274.5682959165048
3101,656.4494115081226
3102,1866.586091852697
3103,2686.745479096031
3104,551.9128432404474
3105,1449.0593922295366
3106,1014.1300935287758
3107,2012.4256558541574
3108,1279.6432857076713
3109,1469.0668591327296
3110,582.350454624582
3111,1295.4095570083211
3112,1036.7516931410498
3113,1461.9958433921174
3114,2359.270126880029
3115,1113.5515064277224
3116,1418.1523175017016
3117,2525.5265116309415
3118,1706.493961426918
3119,2303.352561823886
3120,2314.4312657542446
3121,2183.8537370905683
3122,1780.323997533885
3123,2186.3358877924506
3124,2666.9540276188422
3125,2435.1527283711075
3126,2084.5327023767313
3127,1999.3042176026408
3128,2826.969242295345
3129,1980.6791760387002
3130,2555.6879741655516
3131,1224.5727832553785
3132,2768.589114566472
3133,2676.9651921974432
3134,1829.4255912191584
3135,3030.6619039478687
3136,2223.7160023993047
3137,1587.0552149496332
3138,1404.1318561579847
3139,1953.579704723176
3140,1909.9648068057713
3141,1410.6936247677907
3142,2797.253905361531
3143,1879.2249060178162
3144,1945.6795881733258
3145,2731.4761936353807
3146,2180.613077934665
3147,63.20457279968567
3148,2442.145334808752
3149,3468.1536112523117
3150,1687.0215092402839
3151,1107.077780504486
3152,1118.3129925806156
3153,1370.751471641084
3154,3109.1746388401916
3155,2889.3358903771314
3156,2056.1377399888115
3157,2631.713504491552
3158,2756.1552316942093
3159,3142.7617960262764
3160,2018.8698635746252
3161,1979.0139131584947
3162,1994.1808071989262
3163,2743.848553727803
3164,1007.5125995241768
3165,1576.704265570557
3166,2881.858569541087
3167,1383.2935716597042
3168,1937.2438659968377
3169,2506.7591546119365
3170,1735.8030300371447
3171,1460.9429424835835
3172,2100.2796255335393
3173,1556.2342337471346
3174,3450.4076699784996
3175,1896.291951159212
3176,1326.4037030187046
3177,2209.416423961745
3178,2144.3350423386596
3179,2315.6573719842113
3180,2157.285134217685
3181,3071.353711488869
3182,2798.8674523258014
3183,1932.3554823535358
3184,3418.5024017566116
3185,1751.696030509348
3186,3354.331624873523
3187,468.33594711291516
3188,1179.2420880613113
3189,2415.072344351282
3190,1195.4971430240055
3191,1761.7609149340922
3192,2303.4387971622627
3193,1808.6039551746408
3194,2218.5428144534285
3195,2193.193987322894
3196,2112.9085995490973
3197,1491.7683855766963
3198,2703.3745957747333
3199,1744.049726830153
3200,2465.7721931689707
3201,1642.9816332146208
3202,2318.7511058714335
3203,3001.9453587916128
3204,2703.4823493528233
3205,2894.0965548193108
3206,2777.00855195142
3207,2623.48861192535
3208,1878.7058036079898
3209,1400.4856031633014
3210,1294.3758710630248
3211,2165.1269104992057
3212,1484.9113974580666
3213,2461.380828643909
3214,2452.161891426546
3215,2171.4913401951817
3216,2170.7793290802997
3217,2955.4656581399845
3218,2137.1018267782015
3219,2404.3890909520856
3220,3152.732847186782
3221,2505.3547793824446
3222,1275.8309418422416
3223,2631.697200800229
3224,2984.9648906525904
3225,3444.169587254309
3226,2446.463682588364
3227,2661.7059932100296
3228,3103.303300019563
3229,3313.0250572757227
3230,1452.2851086796643
3231,1902.7609564639367
3232,1829.8002992217905
3233,1711.088612190433
3234,1978.5522846838587
3235,3345.548094864683
3236,2290.442896604121
3237,2737.951903312776
3238,2684.5913199542624
3239,1332.9092226395878
3240,3308.3451787575355
3241,2063.525625659413
3242,3011.1666104868305
3243,2808.4142534868374
3244,2650.5465109366432
3245,3400.304997138219
3246,3373.55556717081
3247,1418.7193462121706
3248,1710.3492077378796
3249,2426.384854829305
3250,648.2121883205076
3251,1456.1398780410975
3252,3299.3500253718066
3253,3215.527145906101
3254,3635.7740585693914
3255,3408.2319247944197
3256,2674.330478580177
3257,1463.7669993309084
3258,2270.380948696327
3259,3415.3832009683106
3260,3237.701123943914
3261,3092.8602775292584
3262,3255.057530150056
3263,3151.8683393086303
3264,3064.5624483527777
3265,3393.3544766415594
3266,1303.6011772358092
3267,2640.375322741461
3268,1414.8267564494354
3269,2732.1525135934003
3270,2148.138307240971
3271,2874.6600800471483
3272,2530.588521296292
3273,2498.640039632271
3274,3147.861990714329
3275,712.1659199126325
3276,2599.6013900122953
3277,1814.6398457839648
3278,1891.021323689892
3279,2630.5625713080526
3280,3086.4775841523115
3281,1721.800376233334
3282,2336.33852870405
3283,3573.262174974754
3284,2588.3518133519924
3285,1664.745068724218
3286,3292.4825206403398
3287,2901.553951042229
3288,3251.9664834522555
3289,3215.2178809227134
3290,2296.2703839498563
3291,1106.7133980134272
3292,2732.2721025537285
3293,2689.4097032301283
3294,2952.1205538939485
3295,2255.3876891685636
3296,3230.1539728229823
3297,2475.315645779738
3298,1774.4591127555238
3299,2499.8643692333717
3300,2118.025272117034
3301,3165.743194775981
3302,2439.454909211257
3303,2378.516560625109
3304,1314.4893924031626
3305,3027.969309907101
3306,2193.5382123862482
3307,3340.1965731973305
3308,2558.6633702131453
3309,3173.1595539380196
3310,2728.3274766947816
3311,3078.7619928246736
3312,1598.50006246911
3313,2515.962524247069
3314,2704.5027885744616
3315,1986.912861801964
3316,2311.288300164888
3317,1177.0269750364648
3318,2815.7408371692327
3319,1925.9747640940702
3320,2593.0066390276966
3321,2083.252614628314
3322,2906.9434537315915
3323,2844.6619338124474
3324,3401.294569747495
3325,2267.2682447450657
3326,2902.1550561394833
3327,1224.5770338548364
3328,2393.0922059284876
3329,3222.268886996935
3330,1741.239441902847
3331,2803.558619473868
3332,2037.9743815826441
3333,1777.8985113873111
3334,3378.8004134468574
3335,2900.6253243082797
3336,2412.6326848116964
3337,3232.9540185164383
3338,2128.056083293614
3339,2178.888565007701
3340,3515.6532202641847
3341,2428.5341572958987
3342,2643.1796222791672
3343,3242.969705617526
3344,3397.9761720158845
3345,2656.180658088981
3346,696.8876231716085
3347,1882.4228840078567
3348,2258.8837996129237
3349,387.6734015833559
3350,3523.4566350220307
3351,2174.7701419101227
3352,2457.692695694397
3353,3376.273144055569
3354,3201.951037464007
3355,2994.424276356091
3356,3060.6087051996296
3357,3352.3273392316405
3358,2553.0573299324333
3359,2910.405822719094
3360,1190.0568215420535
3361,2599.899533900972
3362,2339.4709707073966
3363,1719.7185276792923
3364,2858.869570439314
3365,1982.2239836326426
3366,2507.6157140614596
3367,2326.590396426602
3368,1777.8790918249877
3369,2882.724896115937
3370,3202.5932759463544
3371,2496.4301996138133
3372,623.0550931151291
3373,3487.354870715691
3374,3640.285926940062
3375,2246.2668275679976
3376,1732.53602605959
3377,2970.4790334868107
3378,1428.4229579169032
3379,2456.8399675815594
3380,3399.7001068284667
3381,2745.013782416708
3382,2842.2362602445733
3383,2396.7291005590228
3384,2367.1257997850544
3385,3517.914431178728
3386,2856.1308210792427
3387,3621.3642041268326
3388,2132.4604299090965
3389,1897.9831022243022
3390,2571.6465231548796
3391,1806.0780969930404
3392,3223.9083131935336
3393,3604.4484047365163
3394,1215.6734561970488
3395,3131.6752555356416
3396,2186.342799494149
3397,2348.943606562317
3398,2531.2104703000127
3399,1599.2555747781262
3400,3561.7962442924586
3401,2351.842346299172
3402,1241.54889358041
3403,3623.6545168675416
3404,2986.5350130054653
3405,1645.813228892095
3406,3316.9169487890217
3407,3636.334260163492
3408,2931.5509263143576
3409,3428.021666761749
3410,2808.8583176837146
3411,1966.2549043476827
3412,2790.971467937867
3413,1592.6972229305923
3414,1351.5743626874546
3415,2753.4892124282483
3416,2267.2204516232073
3417,3437.5991175393133
3418,3083.0463521487586
3419,2698.357787868509
3420,2587.991229498441
3421,2468.5922043440873
3422,3384.610969708543
3423,3319.5056823202663
3424,2613.963836181527
3425,3468.171704349201
3426,1893.347907102872
3427,3562.9752873700127
3428,2398.698369937386
3429,3176.8831431882186
3430,2388.946076271475
3431,2991.9544176162813
3432,2492.040338606071
3433,1925.4724797978645
3434,2467.1450168395454
3435,3466.964909220152
3436,3093.823081235805
3437,2736.4852704921327
3438,3631.0405929822005
3439,1642.080440098058
3440,3596.399982614401
3441,2308.535286735227
3442,2675.639901129439
3443,3393.1119517071807
3444,3494.6398821086987
3445,787.139880233965
3446,1662.4034334742064
3447,2912.2298316055535
3448,3190.562782943309
3449,1810.895207805045
3450,2047.8129035908757
3451,1731.6242450346056
3452,2797.027072892868
3453,3811.360239442343
3454,2359.281031767418
3455,2759.54777965874
3456,2667.998941194387
3457,2296.298166433838
3458,2027.4913974998926
3459,2192.6243791522647
3460,2916.5045125117244
3461,1221.2893858891707
3462,3360.1448409887985
3463,3398.735698591828
3464,2941.7175115202645
3465,2396.4541702156826
3466,2438.061283156922
3467,1086.4195577462308
3468,2460.402453205271
3469,2068.683076765699
3470,607.8230501545711
3471,3451.2369214851265
3472,2585.0748217003975
3473,2999.1421269356165
3474,3240.1760039683936
3475,2249.546125675281
3476,3220.46822636835
3477,2982.916064689633
3478,1147.0932260577401
3479,2880.2105978448767
3480,2376.9071356893464
3481,1770.6465415257837
3482,2944.5299449693975
3483,1384.2517268886252
3484,2353.340341718063
3485,3452.2605254214836
3486,1747.4469013463101
3487,1121.6416057771894
3488,1900.581792692251
3489,2730.57218475552
3490,2448.816683166222
3491,2473.736208823098
3492,2136.3517465997
3493,2426.0393988320598
3494,2438.9383663652484
3495,2604.4857836689894
3496,2647.439799959045
3497,2980.047055284333
3498,2444.7226146350527
3499,2693.4701592341776
3500,2114.4212273711564
3501,2236.8335622822356
3502,2316.683016458604
3503,2821.772709969748
3504,3190.156086704483
3505,1051.8648545913686
3506,2021.381697109873
3507,3612.4618019922077
3508,2700.540469206461
3509,2340.2503311627847
3510,3383.293102073694
3511,68.7855494194053
3512,2731.0961716995557
3513,3649.3995480749595
3514,2346.0171046004334
3515,1809.1532798597063
3516,2010.9144512936582
3517,2332.596814825945
3518,1513.5870344851319
3519,3581.1544880052
3520,2457.0543014455
3521,3342.2738810987807
3522,2709.9294303625716
3523,3534.615107731532
3524,1781.4517284672538
3525,3770.451331566688
3526,1826.9016874577928
3527,2471.1660632408634
3528,3380.841975579377
3529,2811.425262423039
3530,2899.563615443687
3531,2529.364545802543
3532,1872.4628893270885
3533,3250.3443361561663
3534,3316.8593618946925
3535,2923.885671640486
3536,2348.005349941602
3537,2138.928968973559
3538,2813.0683504306166
3539,2467.6709704044033
3540,1504.351286106301
3541,1521.6984276568783
3542,2077.2228813892316
3543,2740.6029585427823
3544,1809.4293170797812
3545,2391.626338429986
3546,2807.409654950805
3547,1999.5272873902595
3548,3087.5269043819303
3549,2423.6898845252736
3550,1580.1875590340705
3551,2402.8520184522918
3552,2284.266965256446
3553,2174.325209923846
3554,3340.904077712524
3555,2682.287790375547
3556,2481.6701302651745
3557,2516.1520522459036
3558,2229.1065066218375
3559,3370.8706913088827
3560,2324.2740145759576
3561,3070.7344195462883
3562,2614.967666848473
3563,3189.8941031617555
3564,3326.1550514975866
3565,2187.0519159586697
3566,3191.027163050279
3567,1797.72290392978
3568,2710.4986017468145
3569,2847.312133681831
3570,2729.1449468586056
3571,3636.6136570870262
3572,3402.41261174662
3573,3282.3809002500543
3574,2031.095410913732
3575,1821.9602414122062
3576,3621.8686099688744
3577,3295.7651861719637
3578,2980.858974107559
3579,1451.3624848876782
3580,3520.8865278194476
3581,3425.289668717726
3582,3358.145821729297
3583,3318.297276082479
3584,2670.5836967408077
3585,2812.2396687496116
3586,3297.1620787812594
3587,3432.977347742348
3588,1656.2681708402813
3589,2468.288773436383
3590,1721.776422583932
3591,3174.328232401999
3592,3184.6010095410984
3593,3170.790950042845
3594,3670.7466805297154
3595,963.6407564653208
3596,2451.608096456081
3597,3296.4158361074965
3598,3519.610221303559
3599,2655.3438440233376
3600,2774.4045564547323
3601,2364.0094372728104
3602,2819.638187102569
3603,3623.687863545796
3604,3159.310927443681
3605,3345.3252916626066
3606,2610.2952085391835
3607,1759.8385023372714
3608,3243.654965664711
3609,1978.8536904440832
3610,2728.102604729744
3611,2819.219462598027
3612,2034.9349545269881
3613,2442.9236812290837
3614,2088.1450740280175
3615,1782.4886777854165
3616,3283.9021242350555
3617,1593.3254074890847
3618,3616.642220236336
3619,2696.0900616746912
3620,3551.8104816379528
3621,2031.2769962550037
3622,2250.6677045696256
3623,1779.9573915815506
3624,2295.3514113249985
3625,2861.1044883527557
3626,803.3529089503487
3627,2971.1195375624898
3628,2186.9297688339198
3629,3495.0326418198924
3630,3454.926046397406
3631,937.4489398423566
3632,1841.815569431211
3633,1749.3774051071634
3634,3443.106794546868
3635,2458.5090358127068
3636,1770.3502369186588
3637,3105.1972871730445
3638,2370.9318757045535
3639,1662.9008690471735
3640,3291.3984139010736
3641,2793.00997933019
3642,1412.4039374397773
3643,2547.454207928083
3644,1504.4681932262026
3645,2460.747030727451
3646,2164.466709565279
3647,2423.0195050557822
3648,1464.1851423404307
3649,2479.438085844881
3650,1921.379640962442
3651,2516.320777400393
3652,2205.995839210992
3653,2565.3287453259195
3654,3520.4509415236903
3655,2624.5900655146183
3656,2337.575233906818
3657,1968.3754890837884
3658,3304.4305474360976
3659,2527.907655412375
3660,938.8053688811705
3661,1599.1793994652005
3662,1941.2388326764956
3663,2959.6912919957103
3664,3268.3804073873434
3665,1437.307721143425
3666,1620.365836772112
3667,1606.1368662006544
3668,2650.5389714972757
3669,2388.4477356577418
3670,1920.2558060234508
3671,3072.5536487333957
3672,2415.116035275687
3673,2061.809200554671
3674,2366.7949794278206
3675,2034.4265792553226
3676,2288.644458573424
3677,2422.243038205729
3678,1198.3931365167741
3679,1452.1932792049129
3680,3346.3876654260107
3681,2934.647714663612
3682,2533.1321565404673
3683,1663.227495844061
3684,2395.1853435487774
3685,2066.020065246305
3686,2599.533039808936
3687,3424.6973250889637
3688,2374.137981324461
3689,3470.917357590546
3690,1220.416464733684
3691,3306.367500432047
3692,2590.4135334194902
3693,1668.1853913572374
3694,2381.9245396507936
3695,2714.930645242276
3696,2104.519348992882
3697,3320.9342169001643
3698,2631.486061133337
3699,1985.9334679386066
3700,2497.1065515330233
3701,2462.8314322920082
3702,3294.2738038573666
3703,2629.04704131447
3704,1963.564736448832
3705,2106.265849440163
3706,2929.5194018204443
3707,2842.681555737532
3708,3358.046571314713
3709,1786.9725123493536
3710,1679.8905849303999
3711,9.025290276507137
3712,3648.5727525076077
3713,1754.5199882788995
3714,2396.0779003667667
3715,1997.7773731811221
3716,1246.1373177538594
3717,2608.683264841227
3718,3193.940397195213
3719,2669.8940228819183
3720,2321.671008961636
3721,2801.929712575645
3722,3355.089638883432
3723,3257.2029417347217
3724,3703.4764288254996
3725,2842.5116393915127
3726,3618.3050611708913
3727,3525.712192943012
3728,1337.8441955115072
3729,2398.142098189226
3730,1968.7899332641127
3731,2397.9507618446
3732,2535.8619919055604
3733,2264.7664714868997
3734,2387.8513858765396
3735,312.6908523792906
3736,3175.018494235479
3737,2554.5863393158384
3738,1811.4124887786922
3739,2287.209625737664
3740,1715.9274879674556
3741,2720.5893697656597
3742,3306.4168315832517
3743,2711.727673897775
3744,3167.1427417401724
3745,2858.948730298743
3746,1852.939352985925
3747,2301.3143127634285
3748,3591.926067378948
3749,3416.0457813438093
3750,2265.5688644167703
3751,2986.5539596415906
3752,2608.027667700436
3753,2811.381213445104
3754,2407.8268358666405
3755,1375.5047274342778
3756,2592.3893947534266
3757,3575.2881465091577
3758,2958.0217621429633
3759,3184.300771433049
3760,2793.145466737619
3761,2403.984361646327
3762,2121.747551520061
3763,2660.6708737290714
3764,2163.9331293309283
3765,1911.4736399340363
3766,1883.6452893163248
3767,2546.489794750661
3768,689.5644620086732
3769,3019.133301497821
3770,2470.4890072812286
3771,1880.6603964262738
3772,1074.3379680298551
3773,2571.9769613316134
3774,1229.379516238946
3775,1216.9750579489012
3776,454.2344386606604
3777,3005.220080299878
3778,1581.7888953220715
3779,3254.140232978239
3780,518.3034463320506
3781,2555.103622422039
3782,2529.496365354126
3783,3320.851174895059
3784,2225.03382570537
3785,2674.759477650426
3786,2018.6816247788593
3787,658.2035203634292
3788,2395.434205679655
3789,2772.3813136354165
3790,2288.6295529016834
3791,1907.3857343271002
3792,1427.0639900311344
3793,2631.8026372188365
3794,2770.9349722636002
3795,1957.516623870232
3796,1086.0449737085166
3797,1418.0687472211864
3798,3509.243008938461
3799,1936.1469934487961
3800,2870.143894992043
3801,1452.975791559362
3802,3387.223008865379
3803,2868.136000359598
3804,3550.094151483095
3805,2437.7721428747454
3806,3669.2930614180855
3807,1333.2698504846583
3808,1920.1388787954136
3809,2205.1056016070256
3810,3406.854221336312
3811,2064.593208906656
3812,1022.2502293283854
3813,3339.1048654775973
3814,2443.1810010706995
3815,2915.7772896788606
3816,2193.84251963935
3817,2662.9419355864497
3818,1259.1481079838288
3819,3140.1793313623675
3820,2350.1330541838565
3821,3436.8246849311176
3822,3425.749272826559
3823,2870.7653099936215
3824,2538.705413745343
3825,2893.50684401085
3826,950.6360691336436
3827,948.4520297755716
3828,2286.1350704418114
3829,2541.125578995237
3830,2944.6485491240473
3831,3406.2310932442506
3832,2536.088075742596
3833,3186.765948151636
3834,2308.328506380886
3835,1035.6812677797311
3836,3230.9976640344807
3837,3381.1457425256344
3838,1239.7719446104086
3839,3796.5572105423184
3840,2283.0651210003048
3841,2765.435186813069
3842,1498.5081808828118
3843,1968.995053937144
3844,1594.0298942215577
3845,1803.605076181945
3846,3146.5119698335075
3847,2390.845946593656
3848,3416.5453069712635
3849,3191.676735189599
3850,1932.3690450413044
3851,3255.5891957039057
3852,1569.5798468988612
3853,2476.3534185196054
3854,2240.3963019356497
3855,1414.934679032626
3856,3424.999848521693
3857,3385.311639547875
3858,2500.3117952854022
3859,3584.412609827354
3860,1688.1913663952816
3861,2726.7223465789784
3862,2891.40028942661
3863,3490.962818525531
3864,1890.6504355697855
3865,3196.500912901701
3866,2470.2192795145534
3867,3425.432129679244
3868,3476.8490689758873
3869,3331.3198388192063
3870,1975.8823074621066
3871,2340.2710089667717
3872,2643.7608479151363
3873,1648.1110021243728
3874,3547.09764490743
3875,1484.7106037699007
3876,2928.6782507169505
3877,3190.7132618319597
3878,3528.1391447343826
3879,494.56134675654545
3880,3633.077509485773
3881,3632.336364690591
3882,3475.644381823629
3883,3645.726071823186
3884,3064.505507162044
3885,3285.3910572740474
3886,3080.556704934715
3887,3231.90352396326
3888,2221.5401348558044
3889,1384.1632995970765
3890,2607.8970582050847
3891,3635.295427594761
3892,3090.796141209332
3893,1394.0226237289864
3894,-493.48884248385593
3895,2962.819996054828
3896,2968.748980189392
3897,2370.4352543327927
3898,3623.757439710258
3899,1546.352397780025
3900,2683.362519151363
3901,2139.177029012529
3902,2990.266795255296
3903,3409.602064132447
3904,3264.6791976053205
3905,3367.3220546958764
3906,858.6285489752939
3907,3066.883035154881
3908,3647.35560665658
3909,2741.705825126073
3910,2258.86832125525
3911,1533.6608942998093
3912,3619.143781862423
3913,2030.1217930250702
3914,2369.9976434274895
3915,2721.913128386837
3916,1771.494108837136
3917,2602.433449341484
3918,2961.6079787374615
3919,3551.107395656613
3920,3196.4566714249067
3921,1142.731180161736
3922,1432.6126338979948
3923,2219.1635635803245
3924,2453.019682573885
3925,2511.456592796844
3926,2940.040249952534
3927,2200.5491678118656
3928,3601.236487405488
3929,1985.2228336832152
3930,2369.4003349483264
3931,3300.7181200835107
3932,1623.099422078218
3933,1622.179818721498
3934,1702.638178236015
3935,1935.9153017221715
3936,3483.353149609273
3937,2286.633135471218
3938,2432.9345873568686
3939,3215.150168587806
3940,1943.0556179067962
3941,3102.2020811639445
3942,2980.6333648903615
3943,2270.0907968917973
3944,3653.644737058856
3945,2428.819363879554
3946,2547.0949126071514
3947,2437.2097376554457
3948,2918.6377271563465
3949,1353.0577913973084
3950,2076.224501107967
3951,3578.858368076297
3952,3630.615614380154
3953,2544.764453726601
3954,3490.0224699455484
3955,2756.620009185501
3956,2764.1823133693238
3957,3728.693571092324
3958,2387.8837214258233
3959,3567.705038668047
3960,2864.377626935111
3961,3427.23650234591
3962,3567.4715999632904
3963,3034.4288893883804
3964,3606.3682796887274
3965,2816.896897425984
3966,3488.7669398642224
3967,3462.6534024702764
3968,3074.806321195812
3969,2989.0268700636448
3970,2988.160160081497
3971,2205.4421585388263
3972,3253.859915370478
3973,2537.825600709011
3974,2791.761742786836
3975,1071.5763385110708
3976,3511.950000325039
3977,1572.539471633252
3978,2616.72589782663
3979,1557.7674591763341
3980,3453.1105077903053
3981,2068.3224030284528
3982,2625.0363224287894
3983,2421.524377564587
3984,3098.2066672138485
3985,2736.8718173051698
3986,2960.4830646388814
3987,3568.9805004679533
3988,1709.0478071532232
3989,1802.5709132657041
3990,3267.2230694494133
3991,3404.3730577645624
3992,3244.587529939937
3993,2080.2701876561728
3994,1379.349624609835
3995,2036.4889794997823
3996,2113.925658887328
3997,2172.695483567814
3998,1312.1871746398454
3999,2365.0886572819495
4000,2625.0070702854296
4001,1735.8251879975267
4002,2353.8918515386536
4003,3128.336394769755
4004,2692.3628976246055
4005,1548.6923849470368
4006,3255.4586261424224
4007,-48.59846878854447
4008,3282.9820036545484
4009,1104.6819504959053
4010,3323.7193244017085
4011,2510.680015867733
4012,3234.206098463601
4013,1009.9849393227631
4014,1613.3537898947677
4015,3266.98204646603
4016,3574.963519022866
4017,2500.7458780587667
4018,2379.1670359184614
4019,2123.284664139384
4020,1586.419215839258
4021,2826.2595949583865
4022,1239.297646916137
4023,2276.827535646123
4024,2522.81110357645
4025,2358.33278914643
4026,3578.3834536640693
4027,3691.8561920132256
4028,3371.7553906596736
4029,1715.8016461063535
4030,2829.209526184281
4031,2904.8450431286587
4032,3617.371149144497
4033,3367.140080153448
4034,2776.1758661615822
4035,3374.110374136561
4036,1670.5913950440993
4037,2360.4295970513967
4038,2797.0452272234634
4039,2682.2537054606196
4040,1773.2121736328518
4041,3376.5592634636428
4042,2420.278524477923
4043,2909.399242296802
4044,3604.8243125743465
4045,1321.3480304359416
4046,2640.579983913154
4047,2635.3014650503696
4048,3079.7579319189977
4049,3245.696625525938
4050,3465.434036889595
4051,2131.7777307811525
4052,1229.332706030661
4053,2773.8162889403247
4054,3023.7491641336605
4055,874.0375848173456
4056,3641.5298444803816
4057,3308.766965520798
4058,2432.228650878304
4059,3233.3514372345494
4060,998.7773168730984
4061,2927.253441610305
4062,3329.7169192883866
4063,3400.289736129129
4064,2904.508688148324
4065,2959.714376220924
4066,2337.4582037438386
4067,3094.440493789514
4068,2468.4391849433027
4069,1975.6020984186805
4070,2884.0642300820296
4071,3393.8255307801924
4072,2804.1609564293976
4073,3448.152198930373
4074,2442.749211765817
4075,3066.1005154921713
4076,3335.904964027362
4077,2753.410792717872
4078,2845.391718955876
4079,2880.1128033736168
4080,3319.4030037396883
4081,2407.1087145291604
4082,3360.4919039153897
4083,2205.4880815101874
4084,2732.696912783762
4085,2426.952023348489
4086,2476.2305221944694
4087,2317.21601419879
4088,3592.409392207377
4089,2525.7856964452153
4090,3507.5947849039057
4091,3437.391324358232
4092,2963.4514233244367
4093,2691.7689829946394
4094,3415.9408403260463
4095,2453.431368115158
4096,3029.210240214927
4097,3097.061645822225
4098,2880.2370303839957
4099,2478.500408793358
4100,3282.180936283392
4101,3145.9439155487344
4102,2759.2235525959627
4103,3502.7701323121296
4104,973.0023775633243
4105,3521.463797714065
4106,3427.115288595165
4107,1948.771827811113
4108,1721.9073272313447
4109,3072.2577524637195
4110,3760.750173836486
4111,2590.2606051721323
4112,2105.6198181741297
4113,2461.971952665632
4114,1247.4310927311756
4115,2262.206379470406
4116,2252.4132722580466
4117,3557.863070795102
4118,2973.8605345052
4119,3690.8874429886814
4120,2714.222726620494
4121,2637.093882320238
4122,3730.472949775765
4123,2252.800937636742
4124,3277.372032847758
4125,1355.9648123650393
4126,2287.8760081786136
4127,2157.0801987443597
4128,2707.3663645308566
4129,3426.4599022527314
4130,1683.2547524993581
4131,2635.9929802508414
4132,2195.320773048166
4133,2067.314726487634
4134,2583.523713099068
4135,3669.1929706215856
4136,3071.032496009007
4137,1421.0753324097261
4138,1963.1393871021899
4139,2293.9638406823783
4140,1748.596743686776
4141,2668.421584395529
4142,1624.7060259297716
4143,2580.026506937373
4144,2235.4616339563786
4145,1464.454627640579
4146,3279.8557432771827
4147,2162.9089182358566
4148,1257.8529356408899
4149,3541.8203484478836
4150,3551.968751901413
4151,1518.3125685040366
4152,3810.216693136256
4153,1738.1650325744774
4154,649.1925527352845
4155,1595.9068686935718
4156,692.8479291123826
4157,3676.7521764579706
4158,2719.2534703730717
4159,1946.3829020633223
4160,2333.086880931872
4161,2476.4017893434716
4162,2216.612231249626
4163,2383.4018027854204
4164,2443.3187642787066
4165,3563.875177719516
4166,2533.610463763802
4167,3263.7273252979103
4168,1588.8147161077225
4169,3755.0865451817576
4170,3036.8499734570487
4171,437.2870139421473
4172,3678.9535811033347
4173,1803.4861486017032
4174,1725.7738136418845
4175,3867.40805002916
4176,3619.1334899030066
4177,3471.6696490231207
4178,3714.4696869596605
4179,3115.9744686874383
4180,2346.5875307497286
4181,2547.595950435111
4182,2018.4568078819832
4183,3091.4669724631954
4184,3648.079182162535
4185,2740.2714111904666
4186,2356.592763831482
4187,2417.6217189006625
4188,2309.7850909450763
4189,1543.4089544649598
4190,1700.679408804043
4191,3385.8890413420704
4192,2438.612709655083
4193,3486.2583226004103
4194,1238.9658499211998
4195,2833.049064660879
4196,3594.108703735956
4197,3253.646355180959
4198,2977.9393099075455
4199,2801.5538821260784
4200,1075.332746496152
4201,2293.3816492163896
4202,2721.328900588291
4203,2790.731225683356
4204,2816.641296763513
4205,3583.894723182064
4206,2466.5721085010873
4207,3089.825394582109
4208,2638.2396968396224
4209,3632.976877651272
4210,2503.9724180525204
4211,1874.5779772017167
4212,3618.9527581921698
4213,2679.620093196358
4214,1930.0699235465988
4215,1696.0955823424547
4216,3643.8998013449996
4217,2452.4026494043455
4218,3271.054520516165
4219,3642.575612418756
4220,3070.844074500726
4221,1924.145329524892
4222,3094.267732171045
4223,2215.6340274816
4224,2460.9041776654717
4225,2831.7589105938987
4226,2887.804605073899
4227,2682.5028960109676
4228,1519.703866577637
4229,3794.0817410833
4230,2509.9172365058807
4231,2449.4249898524654
4232,2275.8532640842186
4233,3304.8062799523855
4234,3576.538986784917
4235,2610.286508958378
4236,2122.0744593903387
4237,1494.9743898415034
4238,3393.480269672098
4239,2487.300595943049
4240,2700.9015970511123
4241,3468.0963807255393
4242,2705.3164867258392
4243,3813.354103087455
4244,3517.500374475269
4245,1465.7473398883149
